{"learner":{"attributes":{"scikit_learn":"{\"_estimator_type\": \"classifier\"}"},"feature_names":[],"feature_types":[],"gradient_booster":{"model":{"cats":{"enc":[],"feature_segments":[],"sorted_idx":[]},"gbtree_model_param":{"num_parallel_tree":"1","num_trees":"200"},"iteration_indptr":[0,1,2,3,4,5,6,7,8,9,10,11,12,13,14,15,16,17,18,19,20,21,22,23,24,25,26,27,28,29,30,31,32,33,34,35,36,37,38,39,40,41,42,43,44,45,46,47,48,49,50,51,52,53,54,55,56,57,58,59,60,61,62,63,64,65,66,67,68,69,70,71,72,73,74,75,76,77,78,79,80,81,82,83,84,85,86,87,88,89,90,91,92,93,94,95,96,97,98,99,100,101,102,103,104,105,106,107,108,109,110,111,112,113,114,115,116,117,118,119,120,121,122,123,124,125,126,127,128,129,130,131,132,133,134,135,136,137,138,139,140,141,142,143,144,145,146,147,148,149,150,151,152,153,154,155,156,157,158,159,160,161,162,163,164,165,166,167,168,169,170,171,172,173,174,175,176,177,178,179,180,181,182,183,184,185,186,187,188,189,190,191,192,193,194,195,196,197,198,199,200],"tree_info":[0,0,0,0,0,0,0,0,0,0,0,0,0,0,0,0,0,0,0,0,0,0,0,0,0,0,0,0,0,0,0,0,0,0,0,0,0,0,0,0,0,0,0,0,0,0,0,0,0,0,0,0,0,0,0,0,0,0,0,0,0,0,0,0,0,0,0,0,0,0,0,0,0,0,0,0,0,0,0,0,0,0,0,0,0,0,0,0,0,0,0,0,0,0,0,0,0,0,0,0,0,0,0,0,0,0,0,0,0,0,0,0,0,0,0,0,0,0,0,0,0,0,0,0,0,0,0,0,0,0,0,0,0,0,0,0,0,0,0,0,0,0,0,0,0,0,0,0,0,0,0,0,0,0,0,0,0,0,0,0,0,0,0,0,0,0,0,0,0,0,0,0,0,0,0,0,0,0,0,0,0,0,0,0,0,0,0,0,0,0,0,0,0,0,0,0,0,0,0,0],"trees":[{"base_weights":[9.249699E-9,-1.0195549E0,2.6524403E0,-1.3256795E0,-1.8081014E-1,1.6963562E0,2.8023643E0,-1.3610003E0,1.8042295E-1,-3.8172686E-1,1.9170308E0,1.9502915E0,3.3353723E-3,2.1991203E0,2.9323573E0,-1.3875502E0,1.7922746E-1,2.4784885E-1,-1.1623079E0,7.3720604E-1,-8.168017E-1,2.70547E-1,1.1245389E0,1.0400527E0,2.3187187E0,-9.2882276E-2,6.342336E-1,1.1570034E0,2.9750717E-1,3.0515674E-1,2.3408656E0,-8.7820506E-1,-1.4009275E0,1.9981508E-1,-9.058585E-1,-1.2574719E-1,-2.8156763E-2,1.1040135E-1,2.4749174E0,-9.822169E-1,2.0664722E-1,6.0647473E-2,2.100019E-1,1.7889191E0,1.17332526E-1,2.6274753E0,8.727374E-1,1.405009E-1,-7.6161735E-2,1.9560777E0,7.516491E-1,2.789249E0,8.603305E-1,-1.3132319E-1,3.3353723E-4,-1.4324735E-1,-1.17850296E-1,-1.17846504E-1,1.984821E-2,-6.261943E-2,6.33668E-2,6.785318E-2,2.5904855E-1,-1.3222681E-1,-8.162452E-2,9.284713E-2,-3.533008E-2,1.0659813E-1,-7.800268E-2,2.221928E-1,3.0951245E-2,-5.534629E-2,1.6386312E-1,1.0374703E-1,2.809915E-1,-7.6161735E-2,1.4685495E-1,7.0691116E-2,2.221928E-1,-3.4934893E-2,1.18357696E-1,6.785318E-2,2.855738E-1,-4.7998138E-2,2.264932E-1],"categories":[],"categories_nodes":[],"categories_segments":[],"categories_sizes":[],"default_left":[0,0,0,0,0,0,0,0,0,0,0,0,0,0,0,0,0,0,0,0,0,0,0,0,0,0,0,0,0,0,0,0,0,0,0,0,0,0,0,0,0,0,0,0,0,0,0,0,0,0,0,0,0,0,0,0,0,0,0,0,0,0,0,0,0,0,0,0,0,0,0,0,0,0,0,0,0,0,0,0,0,0,0,0,0],"id":0,"left_children":[1,3,5,7,9,11,13,15,17,19,21,23,25,27,29,31,33,-1,35,37,39,-1,41,43,45,-1,47,49,-1,-1,51,53,55,-1,57,-1,-1,59,61,63,65,67,-1,69,71,73,75,-1,-1,77,79,81,83,-1,-1,-1,-1,-1,-1,-1,-1,-1,-1,-1,-1,-1,-1,-1,-1,-1,-1,-1,-1,-1,-1,-1,-1,-1,-1,-1,-1,-1,-1,-1,-1],"loss_changes":[2.4424062E3,1.672674E2,3.1191162E1,2.5662292E1,7.474504E1,1.5696777E1,1.0429932E1,1.9343933E1,3.938803E1,7.902138E1,6.6510963E0,8.239517E0,3.979891E0,3.0648514E1,5.1314697E0,1.8982544E0,1.917543E1,0E0,3.2890892E-1,4.9421158E1,1.9919014E1,0E0,9.678149E0,7.3666334E0,7.43779E0,0E0,5.408842E0,4.887911E0,0E0,0E0,1.9834915E1,5.5384464E0,1.439331E0,0E0,2.1001048E0,0E0,0E0,1.372388E1,7.43454E-1,4.588867E0,7.2113385E0,5.521356E0,0E0,3.1445503E0,7.0117826E0,2.1505814E0,6.311063E0,0E0,0E0,4.1597748E-1,7.3790216E0,1.6075287E0,1.8466747E1,0E0,0E0,0E0,0E0,0E0,0E0,0E0,0E0,0E0,0E0,0E0,0E0,0E0,0E0,0E0,0E0,0E0,0E0,0E0,0E0,0E0,0E0,0E0,0E0,0E0,0E0,0E0,0E0,0E0,0E0,0E0,0E0],"parents":[2147483647,0,0,1,1,2,2,3,3,4,4,5,5,6,6,7,7,8,8,9,9,10,10,11,11,12,12,13,13,14,14,15,15,16,16,18,18,19,19,20,20,22,22,23,23,24,24,26,26,27,27,30,30,31,31,32,32,34,34,37,37,38,38,39,39,40,40,41,41,43,43,44,44,45,45,46,46,49,49,50,50,51,51,52,52],"right_children":[2,4,6,8,10,12,14,16,18,20,22,24,26,28,30,32,34,-1,36,38,40,-1,42,44,46,-1,48,50,-1,-1,52,54,56,-1,58,-1,-1,60,62,64,66,68,-1,70,72,74,76,-1,-1,78,80,82,84,-1,-1,-1,-1,-1,-1,-1,-1,-1,-1,-1,-1,-1,-1,-1,-1,-1,-1,-1,-1,-1,-1,-1,-1,-1,-1,-1,-1,-1,-1,-1,-1],"split_conditions":[6.98E-1,6.039E-1,7.217E-1,6.183E-1,6.129E-1,8.107E-1,7.933E3,6.085E-1,3.926E-1,3.926E-1,8.526E-1,7.933E3,7.966E3,6.974E-1,8.972E-1,1.617E-1,8.695E-1,2.4784885E-1,4.066E-1,5.382E-1,5.715E-1,2.70547E-1,6.974E-1,7.118E3,9.279E-1,-9.2882276E-2,8.588E-1,3.696E-1,2.9750717E-1,3.0515674E-1,6.977E-1,4.668E-1,4.11E-1,1.9981508E-1,5.5E-1,-1.2574719E-1,-2.8156763E-2,3.566E-1,8.22E-2,2.924E-1,6.505E-1,4.252E-1,2.100019E-1,2.524E-1,5.942E-1,7.015E-1,1.594E-1,1.405009E-1,-7.6161735E-2,6.994E3,4.068E-1,1.163E-1,5.67E-1,-1.3132319E-1,3.3353723E-4,-1.4324735E-1,-1.17850296E-1,-1.17846504E-1,1.984821E-2,-6.261943E-2,6.33668E-2,6.785318E-2,2.5904855E-1,-1.3222681E-1,-8.162452E-2,9.284713E-2,-3.533008E-2,1.0659813E-1,-7.800268E-2,2.221928E-1,3.0951245E-2,-5.534629E-2,1.6386312E-1,1.0374703E-1,2.809915E-1,-7.6161735E-2,1.4685495E-1,7.0691116E-2,2.221928E-1,-3.4934893E-2,1.18357696E-1,6.785318E-2,2.855738E-1,-4.7998138E-2,2.264932E-1],"split_indices":[2,2,2,5,1,4,3,1,4,4,0,3,3,1,0,4,0,0,1,5,5,0,1,3,0,0,0,4,0,0,4,2,5,0,2,0,0,1,9,1,4,4,0,9,1,2,5,0,0,3,5,5,1,0,0,0,0,0,0,0,0,0,0,0,0,0,0,0,0,0,0,0,0,0,0,0,0,0,0,0,0,0,0,0,0],"split_type":[0,0,0,0,0,0,0,0,0,0,0,0,0,0,0,0,0,0,0,0,0,0,0,0,0,0,0,0,0,0,0,0,0,0,0,0,0,0,0,0,0,0,0,0,0,0,0,0,0,0,0,0,0,0,0,0,0,0,0,0,0,0,0,0,0,0,0,0,0,0,0,0,0,0,0,0,0,0,0,0,0,0,0,0,0],"sum_hessian":[9.0115375E2,6.5138684E2,2.4976689E2,4.7678833E2,1.7459854E2,3.5526253E1,2.1424065E2,4.6595715E2,1.0831175E1,1.6008476E2,1.4513775E1,3.0760536E1,4.765717E0,4.1158466E1,1.7308218E2,4.581587E2,7.798446E0,3.6825995E0,7.1485753E0,4.462444E1,1.1546033E2,6.065458E0,8.448317E0,9.964681E0,2.0795856E1,1.732988E0,3.032729E0,1.8629622E1,2.2528845E1,1.4058865E2,3.2493526E1,1.3430657E1,4.4472806E2,2.599482E0,5.198964E0,6.065458E0,1.0831175E0,3.357664E1,1.1047798E1,9.943018E1,1.603014E1,4.5490937E0,3.899223E0,4.9823403E0,4.9823403E0,1.6463387E1,4.33247E0,1.9496115E0,1.0831175E0,4.9823403E0,1.3647281E1,2.4261831E1,8.231693E0,8.66494E0,4.765717E0,3.8472333E2,6.000471E1,4.1158466E0,1.0831175E0,1.3863904E1,1.9712738E1,1.0831175E0,9.964681E0,3.032729E1,6.91029E1,6.7153287E0,9.314811E0,1.9496115E0,2.599482E0,3.465976E0,1.5163645E0,3.899223E0,1.0831175E0,2.3828585E0,1.4080527E1,1.0831175E0,3.2493525E0,1.5163645E0,3.465976E0,3.899223E0,9.748057E0,1.0831175E0,2.3178715E1,4.5490937E0,3.6825995E0],"tree_param":{"num_deleted":"0","num_feature":"11","num_nodes":"85","size_leaf_vector":"1"}},{"base_weights":[-2.8766587E-3,-9.5869887E-1,2.207E0,-1.2615296E0,-1.6307746E-1,1.2020046E0,2.291703E0,-1.2968007E0,1.656752E-1,7.593258E-1,-5.366109E-1,1.4802049E0,-3.996875E-1,1.7933319E0,2.4062984E0,-1.323476E0,1.6971743E-1,2.1408771E-1,-1.10844E0,2.9274422E-1,2.09677E0,-7.678959E-1,1.5358188E0,4.7047618E-1,1.8608954E0,3.0210203E-2,-9.070905E-2,9.634384E-1,2.4784711E-1,2.481339E-1,1.772756E0,-8.263655E-1,-1.3368313E0,1.7644602E-1,-8.573573E-1,-1.201726E-1,-2.6845563E-2,-5.8117527E-1,7.8793633E-1,1.0730811E0,2.3958384E-1,-9.297715E-1,1.8756463E-1,2.0533822E0,2.528177E-2,9.327259E-1,-8.364948E-2,4.8994903E-2,2.0164506E0,-5.6473352E-2,1.1047977E0,2.188489E0,3.4825486E-1,-1.2550661E-1,3.0593402E-4,-1.19944505E-1,-1.3918811E-1,-1.1298718E-1,2.0252066E-2,-8.168794E-2,3.8241554E-2,-1.3302224E-2,1.3013946E-1,-8.344661E-2,1.9174542E-1,-1.2592755E-1,-7.7071235E-2,-8.8946894E-2,5.0453555E-2,2.1888304E-1,5.659182E-2,-9.353714E-2,1.1772855E-1,1.3772108E-1,-1.23823285E-2,9.667156E-2,2.2761662E-1,-5.0227184E-2,1.2447792E-1,1.1822724E-1,2.3988533E-1,-8.5918516E-2,1.671524E-1],"categories":[],"categories_nodes":[],"categories_segments":[],"categories_sizes":[],"default_left":[0,0,0,0,0,0,0,0,0,0,0,0,0,0,0,0,0,0,0,0,0,0,0,0,0,0,0,0,0,0,0,0,0,0,0,0,0,0,0,0,0,0,0,0,0,0,0,0,0,0,0,0,0,0,0,0,0,0,0,0,0,0,0,0,0,0,0,0,0,0,0,0,0,0,0,0,0,0,0,0,0,0,0],"id":1,"left_children":[1,3,5,7,9,11,13,15,17,19,21,23,25,27,29,31,33,-1,35,37,39,41,43,45,47,-1,-1,49,-1,-1,51,53,55,-1,57,-1,-1,59,61,63,-1,65,67,69,71,73,-1,-1,75,-1,77,79,81,-1,-1,-1,-1,-1,-1,-1,-1,-1,-1,-1,-1,-1,-1,-1,-1,-1,-1,-1,-1,-1,-1,-1,-1,-1,-1,-1,-1,-1,-1],"loss_changes":[1.8948541E3,1.5067505E2,2.0302368E1,2.3040161E1,6.0286697E1,1.091013E1,9.888184E0,1.7539368E1,3.212542E1,3.0903559E1,6.075138E1,6.7902985E0,1.7747097E0,2.62809E1,5.0751953E0,1.7821045E0,1.591558E1,0E0,2.9214764E-1,1.716501E1,1.3785591E0,1.7570107E1,9.963713E0,4.887547E0,2.028366E0,0E0,0E0,5.902935E0,0E0,0E0,1.3809769E1,4.9801064E0,1.520813E0,0E0,1.96806E0,0E0,0E0,3.6144915E0,1.2026726E1,9.215277E0,0E0,4.079033E0,6.295663E0,6.8120193E-1,5.839749E0,2.75113E0,0E0,0E0,1.1752548E0,0E0,5.7332935E0,1.1555939E0,1.2217954E1,0E0,0E0,0E0,0E0,0E0,0E0,0E0,0E0,0E0,0E0,0E0,0E0,0E0,0E0,0E0,0E0,0E0,0E0,0E0,0E0,0E0,0E0,0E0,0E0,0E0,0E0,0E0,0E0,0E0,0E0],"parents":[2147483647,0,0,1,1,2,2,3,3,4,4,5,5,6,6,7,7,8,8,9,9,10,10,11,11,12,12,13,13,14,14,15,15,16,16,18,18,19,19,20,20,21,21,22,22,23,23,24,24,27,27,30,30,31,31,32,32,34,34,37,37,38,38,39,39,41,41,42,42,43,43,44,44,45,45,48,48,50,50,51,51,52,52],"right_children":[2,4,6,8,10,12,14,16,18,20,22,24,26,28,30,32,34,-1,36,38,40,42,44,46,48,-1,-1,50,-1,-1,52,54,56,-1,58,-1,-1,60,62,64,-1,66,68,70,72,74,-1,-1,76,-1,78,80,82,-1,-1,-1,-1,-1,-1,-1,-1,-1,-1,-1,-1,-1,-1,-1,-1,-1,-1,-1,-1,-1,-1,-1,-1,-1,-1,-1,-1,-1,-1],"split_conditions":[6.98E-1,6.039E-1,7.131E-1,6.183E-1,3.926E-1,8.107E-1,7.933E3,6.085E-1,3.926E-1,5.382E-1,6.085E-1,8.063E3,2.659E-1,6.974E-1,9.241E-1,1.617E-1,8.695E-1,2.1408771E-1,4.066E-1,3.566E-1,5.857E-1,5.715E-1,8.784E-1,4.102E0,1.594E-1,3.0210203E-2,-9.070905E-2,2.118E-1,2.4784711E-1,2.481339E-1,6.977E-1,4.668E-1,8.451E-1,1.7644602E-1,3.506E3,-1.201726E-1,-2.6845563E-2,6.785E-1,6E0,3.038E-1,2.3958384E-1,2.924E-1,1.355E-1,6.923E-1,6.974E-1,5.784E-1,-8.364948E-2,4.8994903E-2,7.04E-1,-5.6473352E-2,3.428E-1,4.575E-1,5.67E-1,-1.2550661E-1,3.0593402E-4,-1.19944505E-1,-1.3918811E-1,-1.1298718E-1,2.0252066E-2,-8.168794E-2,3.8241554E-2,-1.3302224E-2,1.3013946E-1,-8.344661E-2,1.9174542E-1,-1.2592755E-1,-7.7071235E-2,-8.8946894E-2,5.0453555E-2,2.1888304E-1,5.659182E-2,-9.353714E-2,1.1772855E-1,1.3772108E-1,-1.23823285E-2,9.667156E-2,2.2761662E-1,-5.0227184E-2,1.2447792E-1,1.1822724E-1,2.3988533E-1,-8.5918516E-2,1.671524E-1],"split_indices":[2,2,2,5,4,4,3,1,4,5,1,3,9,1,0,4,0,0,1,1,5,5,0,8,5,0,0,5,0,0,4,2,0,0,3,0,0,2,6,1,0,1,1,2,1,4,0,0,2,0,1,1,1,0,0,0,0,0,0,0,0,0,0,0,0,0,0,0,0,0,0,0,0,0,0,0,0,0,0,0,0,0,0],"split_type":[0,0,0,0,0,0,0,0,0,0,0,0,0,0,0,0,0,0,0,0,0,0,0,0,0,0,0,0,0,0,0,0,0,0,0,0,0,0,0,0,0,0,0,0,0,0,0,0,0,0,0,0,0,0,0,0,0,0,0,0,0,0,0,0,0,0,0,0,0,0,0,0,0,0,0,0,0,0,0,0,0,0,0],"sum_hessian":[8.950773E2,6.25221E2,2.6985623E2,4.5243057E2,1.7279044E2,2.2156889E1,2.4769933E2,4.416083E2,1.0822289E1,4.9506447E1,1.23284E2,1.8942574E1,3.2143157E0,4.942056E1,1.9827878E2,4.3381494E2,7.7933517E0,3.976861E0,6.8454285E0,3.760606E1,1.1900388E1,1.11472984E2,1.1811011E1,5.7985554E0,1.3144017E1,1.518579E0,1.6957368E0,2.3437477E1,2.5983084E1,1.7467287E2,2.3605906E1,1.299499E1,4.2081995E2,2.7717295E0,5.0216217E0,5.7735806E0,1.0718482E0,1.3538881E1,2.4067177E1,3.7279537E0,8.172434E0,9.5346176E1,1.6126814E1,8.529225E0,3.2817857E0,4.49508E0,1.3034754E0,1.7622819E0,1.1381736E1,1.7308642E0,2.1706612E1,1.7857864E1,5.7480407E0,8.228692E0,4.7662983E0,1.2690197E2,2.9391797E2,3.942016E0,1.0796059E0,1.1000341E1,2.5385404E0,8.880212E0,1.5186965E1,1.14745E0,2.5805037E0,2.8789463E1,6.655671E1,3.2562542E0,1.2870559E1,7.3852105E0,1.144015E0,1.8920544E0,1.3897313E0,2.9503741E0,1.5447062E0,3.194045E0,8.187691E0,1.5318582E0,2.0174755E1,4.2325964E0,1.3625268E1,3.1889436E0,2.5590968E0],"tree_param":{"num_deleted":"0","num_feature":"11","num_nodes":"83","size_leaf_vector":"1"}},{"base_weights":[-4.839086E-3,-9.05873E-1,1.9112008E0,-1.20683E0,-1.4820248E-1,1.4328269E0,2.039423E0,-1.242016E0,1.5327851E-1,7.430556E-1,-4.7448435E-1,8.047899E-1,1.746296E0,2.1520494E-1,1.7500349E0,-1.268872E0,1.6098934E-1,1.8984725E-1,-1.0605656E0,4.194379E-1,2.0678031E-1,-6.829298E-1,1.3647349E0,4.071639E-1,1.944491E-1,1.9751824E0,6.5660435E-1,1.8832735E0,6.822E-1,-1.3012619E0,-1.0199484E0,1.5827833E-1,-8.132574E-1,-1.15286246E-1,-2.5599388E-2,-7.198009E-1,9.026407E-1,-8.4955674E-1,2.5258365E-1,1.8005874E0,2.724803E-2,8.359584E-1,-4.1131765E-1,7.2744355E-2,2.0195816E-1,1.2177323E0,-7.0164375E-2,3.7768282E-2,1.9215131E0,-2.9507163E-1,1.6574389E-1,-1.3038465E-1,-2.7816301E-2,-2.5648564E-2,-1.2660341E-1,-1.0833464E-1,1.912343E-2,-8.503965E-3,-1.0002696E-1,3.3226736E-2,1.2136378E-1,-4.092428E-2,-9.963425E-2,9.200165E-2,-3.404255E-2,1.9084454E-1,5.311225E-2,-8.9787886E-2,1.0893624E-1,1.21078424E-1,-1.9246021E-2,1.3667679E-2,-1.0301904E-1,2.1451231E-2,1.644637E-1,1.01421036E-1,1.9985212E-1,-8.572783E-2,7.835314E-2],"categories":[],"categories_nodes":[],"categories_segments":[],"categories_sizes":[],"default_left":[0,0,0,0,0,0,0,0,0,0,0,0,0,0,0,0,0,0,0,0,0,0,0,0,0,0,0,0,0,0,0,0,0,0,0,0,0,0,0,0,0,0,0,0,0,0,0,0,0,0,0,0,0,0,0,0,0,0,0,0,0,0,0,0,0,0,0,0,0,0,0,0,0,0,0,0,0,0,0],"id":2,"left_children":[1,3,5,7,9,11,13,15,17,19,21,23,25,-1,27,29,31,-1,33,35,-1,37,39,41,-1,43,45,47,49,51,53,-1,55,-1,-1,57,59,61,63,65,67,69,71,-1,-1,73,-1,-1,75,77,-1,-1,-1,-1,-1,-1,-1,-1,-1,-1,-1,-1,-1,-1,-1,-1,-1,-1,-1,-1,-1,-1,-1,-1,-1,-1,-1,-1,-1],"loss_changes":[1.5191316E3,1.3629153E2,1.4341187E1,2.0682617E1,5.0161964E1,1.0968689E1,3.3908691E0,1.5935913E1,2.6773937E1,1.8978168E1,4.9234547E1,9.532347E0,8.947144E0,0E0,8.229675E0,1.9766846E0,1.3378825E1,0E0,2.644329E-1,2.1819818E1,0E0,1.7959095E1,7.6220036E0,6.71521E0,0E0,3.83667E-1,7.4298916E0,2.664566E0,9.053738E0,5.8654785E-1,9.408726E0,0E0,1.7917078E0,0E0,0E0,2.053062E0,4.465494E0,5.852005E0,7.429834E0,3.432083E-1,5.1537523E0,4.952341E0,2.484702E0,0E0,0E0,2.4185286E0,0E0,0E0,1.9684448E0,3.9082837E0,0E0,0E0,0E0,0E0,0E0,0E0,0E0,0E0,0E0,0E0,0E0,0E0,0E0,0E0,0E0,0E0,0E0,0E0,0E0,0E0,0E0,0E0,0E0,0E0,0E0,0E0,0E0,0E0,0E0],"parents":[2147483647,0,0,1,1,2,2,3,3,4,4,5,5,6,6,7,7,8,8,9,9,10,10,11,11,12,12,14,14,15,15,16,16,18,18,19,19,21,21,22,22,23,23,25,25,26,26,27,27,28,28,29,29,30,30,32,32,35,35,36,36,37,37,38,38,39,39,40,40,41,41,42,42,45,45,48,48,49,49],"right_children":[2,4,6,8,10,12,14,16,18,20,22,24,26,-1,28,30,32,-1,34,36,-1,38,40,42,-1,44,46,48,50,52,54,-1,56,-1,-1,58,60,62,64,66,68,70,72,-1,-1,74,-1,-1,76,78,-1,-1,-1,-1,-1,-1,-1,-1,-1,-1,-1,-1,-1,-1,-1,-1,-1,-1,-1,-1,-1,-1,-1,-1,-1,-1,-1,-1,-1],"split_conditions":[6.98E-1,6.039E-1,7.347E-1,6.183E-1,3.752E-1,8.063E3,6.649E-1,6.085E-1,3.926E-1,5.857E-1,6.085E-1,6.974E-1,9.158E-1,2.1520494E-1,9.241E-1,4.672E-1,8.695E-1,1.8984725E-1,4.066E-1,3.325E-1,2.0678031E-1,5.715E-1,8.784E-1,6.209E-1,1.944491E-1,7E0,6.977E-1,2.024E0,5.67E-1,6.093E-1,8.451E-1,1.5827833E-1,3.506E3,-1.15286246E-1,-2.5599388E-2,7.889E-1,1E1,7.878E-1,6.505E-1,6.923E-1,6.974E-1,4.289E0,8.217E-1,7.2744355E-2,2.0195816E-1,2.547E-1,-7.0164375E-2,3.7768282E-2,7.512E-1,9E-1,1.6574389E-1,-1.3038465E-1,-2.7816301E-2,-2.5648564E-2,-1.2660341E-1,-1.0833464E-1,1.912343E-2,-8.503965E-3,-1.0002696E-1,3.3226736E-2,1.2136378E-1,-4.092428E-2,-9.963425E-2,9.200165E-2,-3.404255E-2,1.9084454E-1,5.311225E-2,-8.9787886E-2,1.0893624E-1,1.21078424E-1,-1.9246021E-2,1.3667679E-2,-1.0301904E-1,2.1451231E-2,1.644637E-1,1.01421036E-1,1.9985212E-1,-8.572783E-2,7.835314E-2],"split_indices":[2,2,2,5,4,3,4,1,4,5,1,1,0,0,0,1,0,0,1,1,0,5,0,4,0,7,4,8,1,5,0,0,3,0,0,0,7,0,4,2,1,8,0,0,0,5,0,0,2,10,0,0,0,0,0,0,0,0,0,0,0,0,0,0,0,0,0,0,0,0,0,0,0,0,0,0,0,0,0],"split_type":[0,0,0,0,0,0,0,0,0,0,0,0,0,0,0,0,0,0,0,0,0,0,0,0,0,0,0,0,0,0,0,0,0,0,0,0,0,0,0,0,0,0,0,0,0,0,0,0,0,0,0,0,0,0,0,0,0,0,0,0,0,0,0,0,0,0,0,0,0,0,0,0,0,0,0,0,0,0,0],"sum_hessian":[8.779304E2,5.9748517E2,2.8044522E2,4.2720193E2,1.7028325E2,6.185395E1,2.1859128E2,4.165136E2,1.0688331E1,4.529097E1,1.2499228E2,2.178166E1,4.007229E1,1.527186E2,6.587269E1,4.087843E2,7.7292852E0,4.153153E0,6.535177E0,3.7457287E1,7.833684E0,1.1283317E2,1.2159111E1,1.7154089E1,4.627571E0,3.2444763E1,7.627526E0,5.788631E1,7.986376E0,3.5797687E2,5.080745E1,2.8888052E0,4.8404803E0,5.4743004E0,1.0608767E0,1.1009868E1,2.6447418E1,9.585249E1,1.6980673E1,8.909491E0,3.2496207E0,1.1242763E1,5.9113264E0,1.7121731E0,3.073259E1,5.4708343E0,2.1566918E0,1.7032132E0,5.6183098E1,4.337386E0,3.6489897E0,3.5680112E2,1.1757498E0,1.2882555E1,3.7924892E1,3.7528954E0,1.087585E0,3.7732935E0,7.236574E0,1.0061982E1,1.6385435E1,2.491198E1,7.094051E1,7.72958E0,9.251093E0,7.7478614E0,1.1616297E0,1.8194591E0,1.4301615E0,8.109707E0,3.1330554E0,3.5484369E0,2.3628895E0,2.0815961E0,3.389238E0,5.5041237E0,5.067897E1,2.9861126E0,1.3512735E0],"tree_param":{"num_deleted":"0","num_feature":"11","num_nodes":"79","size_leaf_vector":"1"}},{"base_weights":[-5.512529E-3,-8.588041E-1,1.6996263E0,-1.1592118E0,-1.3475345E-1,1.247794E0,1.816874E0,-1.1942856E0,1.4266339E-1,-3.0063054E-1,1.3620768E0,5.683717E-1,1.931681E-1,1.89217E0,1.2593379E0,-1.221359E0,1.5287006E-1,1.7160815E-1,-1.0174638E0,5.226385E-1,-6.6633207E-1,1.8826784E-1,8.13513E-1,7.8526384E-1,-4.061756E-1,6.032398E-1,1.9079967E-1,1.625981E0,9.91959E-2,-1.0735786E0,-1.2820473E0,1.437283E-1,-7.731009E-1,-1.1094608E-1,-2.4414456E-2,5.7251967E-2,1.6835546E0,-8.155816E-1,1.4455082E-1,-3.421843E-2,1.5482754E0,-6.668491E-2,9.271811E-1,-9.842995E-1,7.953086E-2,1.17245354E-1,-3.90813E-2,1.305431E-2,1.7359844E0,-7.865961E-1,1.3805409E-1,-1.1725296E-1,-2.3545964E-2,-7.582297E-2,-1.2955274E-1,-1.0446075E-1,1.9361688E-2,3.842401E-2,-6.4429134E-2,1.769007E-1,5.740694E-2,-6.119768E-2,-1.1146718E-1,-8.505948E-2,4.2618778E-2,7.691227E-2,-7.4892856E-2,1.776601E-1,4.1760698E-2,-3.50432E-2,1.05466425E-1,-1.12381175E-1,-2.3585817E-2,1.0777867E-1,1.9231328E-1,-1.0693415E-1,1.0027054E-2],"categories":[],"categories_nodes":[],"categories_segments":[],"categories_sizes":[],"default_left":[0,0,0,0,0,0,0,0,0,0,0,0,0,0,0,0,0,0,0,0,0,0,0,0,0,0,0,0,0,0,0,0,0,0,0,0,0,0,0,0,0,0,0,0,0,0,0,0,0,0,0,0,0,0,0,0,0,0,0,0,0,0,0,0,0,0,0,0,0,0,0,0,0,0,0,0,0],"id":3,"left_children":[1,3,5,7,9,11,13,15,17,19,21,23,-1,25,27,29,31,-1,33,35,37,-1,39,41,43,45,-1,47,49,51,53,-1,55,-1,-1,57,59,61,63,65,67,-1,69,71,-1,-1,-1,-1,73,75,-1,-1,-1,-1,-1,-1,-1,-1,-1,-1,-1,-1,-1,-1,-1,-1,-1,-1,-1,-1,-1,-1,-1,-1,-1,-1,-1],"loss_changes":[1.2446205E3,1.2384982E2,1.2847168E1,1.8563171E1,4.2199055E1,2.7697998E1,7.034485E0,1.4496399E1,2.266579E1,4.6212677E1,3.3153133E0,7.1896276E0,0E0,2.84021E0,1.2463833E1,2.0740967E0,1.1361136E1,0E0,2.4310112E-1,2.5521389E1,1.2936935E1,0E0,6.297309E0,6.1677704E0,5.350833E0,2.6284752E0,0E0,3.4728203E0,1.03846E1,9.522354E0,9.0704346E-1,0E0,1.6873534E0,0E0,0E0,8.249521E0,2.6755524E-1,4.7745705E0,5.2152767E0,3.8102446E0,6.5005493E-1,0E0,4.433243E0,2.4521303E-1,0E0,0E0,0E0,0E0,4.9760056E-1,1.4816296E0,0E0,0E0,0E0,0E0,0E0,0E0,0E0,0E0,0E0,0E0,0E0,0E0,0E0,0E0,0E0,0E0,0E0,0E0,0E0,0E0,0E0,0E0,0E0,0E0,0E0,0E0,0E0],"parents":[2147483647,0,0,1,1,2,2,3,3,4,4,5,5,6,6,7,7,8,8,9,9,10,10,11,11,13,13,14,14,15,15,16,16,18,18,19,19,20,20,22,22,23,23,24,24,25,25,27,27,28,28,29,29,30,30,32,32,35,35,36,36,37,37,38,38,39,39,40,40,42,42,43,43,48,48,49,49],"right_children":[2,4,6,8,10,12,14,16,18,20,22,24,-1,26,28,30,32,-1,34,36,38,-1,40,42,44,46,-1,48,50,52,54,-1,56,-1,-1,58,60,62,64,66,68,-1,70,72,-1,-1,-1,-1,74,76,-1,-1,-1,-1,-1,-1,-1,-1,-1,-1,-1,-1,-1,-1,-1,-1,-1,-1,-1,-1,-1,-1,-1,-1,-1,-1,-1],"split_conditions":[6.98E-1,6.039E-1,7.989E3,6.183E-1,6.129E-1,6.974E-1,9.241E-1,6.085E-1,3.926E-1,3.926E-1,8.526E-1,7.266E-1,1.931681E-1,7.015E-1,6.977E-1,8.451E-1,8.695E-1,1.7160815E-1,4.066E-1,5.382E-1,5.715E-1,1.8826784E-1,6.974E-1,2.118E-1,7.554E-1,1.2E1,1.9079967E-1,1.594E-1,5.67E-1,4.654E-1,1.617E-1,1.437283E-1,5.5E-1,-1.1094608E-1,-2.4414456E-2,8.834E-1,1.1E1,6.977E-1,1.355E-1,4.252E-1,1E1,-6.668491E-2,3.428E-1,7.712E3,7.953086E-2,1.17245354E-1,-3.90813E-2,1.305431E-2,4.575E-1,9.533E-1,1.3805409E-1,-1.1725296E-1,-2.3545964E-2,-7.582297E-2,-1.2955274E-1,-1.0446075E-1,1.9361688E-2,3.842401E-2,-6.4429134E-2,1.769007E-1,5.740694E-2,-6.119768E-2,-1.1146718E-1,-8.505948E-2,4.2618778E-2,7.691227E-2,-7.4892856E-2,1.776601E-1,4.1760698E-2,-3.50432E-2,1.05466425E-1,-1.12381175E-1,-2.3585817E-2,1.0777867E-1,1.9231328E-1,-1.0693415E-1,1.0027054E-2],"split_indices":[2,2,3,5,1,1,0,1,4,4,0,4,0,2,4,0,0,0,1,5,5,0,1,5,2,7,0,5,1,1,4,0,2,0,0,0,6,4,1,4,6,0,1,3,0,0,0,0,1,0,0,0,0,0,0,0,0,0,0,0,0,0,0,0,0,0,0,0,0,0,0,0,0,0,0,0,0],"split_type":[0,0,0,0,0,0,0,0,0,0,0,0,0,0,0,0,0,0,0,0,0,0,0,0,0,0,0,0,0,0,0,0,0,0,0,0,0,0,0,0,0,0,0,0,0,0,0,0,0,0,0,0,0,0,0,0,0,0,0,0,0,0,0,0,0,0,0,0,0,0,0,0,0,0,0,0,0],"sum_hessian":[8.5341754E2,5.6911523E2,2.843023E2,4.018056E2,1.6730965E2,6.097359E1,2.2332872E2,3.9134503E2,1.0460579E1,1.5133772E2,1.5971926E1,3.1505178E1,2.9468412E1,1.9464754E2,2.8681173E1,3.8372675E2,7.61828E0,4.236128E0,6.224451E0,4.6416203E1,1.0492152E2,6.9470124E0,9.024913E0,2.592878E1,5.5764E0,2.8355534E0,1.9181198E2,2.1488548E1,7.1926246E0,1.1714943E2,2.665773E2,2.9601169E0,4.658163E0,5.174231E0,1.05022E0,3.3882675E1,1.2533525E1,8.86069E1,1.6314615E1,4.6330104E0,4.3919024E0,1.9791404E0,2.3949638E1,3.88689E0,1.6895097E0,1.6889564E0,1.1465969E0,1.6222082E0,1.9866339E1,4.481019E0,2.7116055E0,1.0442204E2,1.27273855E1,8.124295E0,2.58453E2,3.5738592E0,1.084304E0,2.3419281E1,1.0463394E1,1.1085299E1,1.4482269E0,5.4531116E1,3.4075783E1,3.1531138E0,1.3161501E1,2.1454132E0,2.4875972E0,3.1787138E0,1.2131888E0,2.0142586E0,2.1935379E1,2.8534586E0,1.0334313E0,5.8944936E0,1.3971846E1,3.2417514E0,1.2392678E0],"tree_param":{"num_deleted":"0","num_feature":"11","num_nodes":"77","size_leaf_vector":"1"}},{"base_weights":[-6.125888E-3,-8.1630695E-1,1.540111E0,-1.1174601E0,-1.22391224E-1,1.124149E0,1.6489478E0,-1.1524177E0,1.3340864E-1,-2.7775988E-1,1.2455883E0,5.053052E-1,1.7562094E-1,1.7165455E0,1.1490725E0,-1.1797546E0,1.4537945E-1,1.5737818E-1,-9.7820497E-1,4.7314504E-1,-6.2310594E-1,1.711481E-1,7.5172484E-1,1.1792989E0,1.9345953E-1,5.598376E-1,1.7308734E-1,1.4764978E0,9.4381444E-2,-1.0274312E0,-1.2431804E0,1.3177928E-1,-7.359746E-1,-1.0704406E-1,-2.3287304E-2,-6.701105E-2,1.289525E0,-7.6713306E-1,1.2666823E-1,-9.103933E-2,1.3614863E0,-4.0169705E-2,1.4241581E0,-4.129141E-1,5.389476E-1,1.0853399E-1,-3.7208773E-2,1.2222739E-2,1.5762143E0,-7.47293E-1,1.2688856E-1,-1.1283579E-1,-2.1601172E-2,-7.158666E-2,-1.257283E-1,-1.0063801E-1,1.8293789E-2,-9.185863E-2,2.0553548E-2,-6.954213E-3,1.4435063E-1,-1.14031844E-1,-5.9530564E-2,5.8324754E-2,-4.6767943E-2,7.369237E-2,-7.612615E-2,2.4744382E-2,1.6572006E-1,1.5319192E-1,3.9873E-2,7.704892E-2,-7.185758E-2,2.1918638E-2,1.5805005E-1,9.768295E-2,1.7499124E-1,-1.0265758E-1,9.449991E-3],"categories":[],"categories_nodes":[],"categories_segments":[],"categories_sizes":[],"default_left":[0,0,0,0,0,0,0,0,0,0,0,0,0,0,0,0,0,0,0,0,0,0,0,0,0,0,0,0,0,0,0,0,0,0,0,0,0,0,0,0,0,0,0,0,0,0,0,0,0,0,0,0,0,0,0,0,0,0,0,0,0,0,0,0,0,0,0,0,0,0,0,0,0,0,0,0,0,0,0],"id":4,"left_children":[1,3,5,7,9,11,13,15,17,19,21,23,-1,25,27,29,31,-1,33,35,37,-1,39,41,43,45,-1,47,49,51,53,-1,55,-1,-1,57,59,61,63,65,67,-1,69,71,73,-1,-1,-1,75,77,-1,-1,-1,-1,-1,-1,-1,-1,-1,-1,-1,-1,-1,-1,-1,-1,-1,-1,-1,-1,-1,-1,-1,-1,-1,-1,-1,-1,-1],"loss_changes":[1.0343645E3,1.1308487E2,1.0998474E1,1.6669556E1,3.5435436E1,2.3370323E1,5.5585327E0,1.3210907E1,1.9415741E1,3.895307E1,2.6296673E0,6.6532288E0,0E0,2.2510986E0,1.00733185E1,2.201355E0,9.724516E0,0E0,2.2632313E-1,2.1046051E1,1.1170654E1,0E0,5.2862005E0,4.5053396E0,5.162388E0,2.2919106E0,0E0,2.8456993E0,8.930058E0,8.89669E0,9.549866E-1,0E0,1.5453262E0,0E0,0E0,7.0483418E0,4.071392E0,4.8461494E0,4.989722E0,3.421255E0,1.5307074E0,0E0,3.8564682E-1,3.8542657E0,4.8008595E0,0E0,0E0,0E0,4.6366882E-1,1.3507762E0,0E0,0E0,0E0,0E0,0E0,0E0,0E0,0E0,0E0,0E0,0E0,0E0,0E0,0E0,0E0,0E0,0E0,0E0,0E0,0E0,0E0,0E0,0E0,0E0,0E0,0E0,0E0,0E0,0E0],"parents":[2147483647,0,0,1,1,2,2,3,3,4,4,5,5,6,6,7,7,8,8,9,9,10,10,11,11,13,13,14,14,15,15,16,16,18,18,19,19,20,20,22,22,23,23,24,24,25,25,27,27,28,28,29,29,30,30,32,32,35,35,36,36,37,37,38,38,39,39,40,40,42,42,43,43,44,44,48,48,49,49],"right_children":[2,4,6,8,10,12,14,16,18,20,22,24,-1,26,28,30,32,-1,34,36,38,-1,40,42,44,46,-1,48,50,52,54,-1,56,-1,-1,58,60,62,64,66,68,-1,70,72,74,-1,-1,-1,76,78,-1,-1,-1,-1,-1,-1,-1,-1,-1,-1,-1,-1,-1,-1,-1,-1,-1,-1,-1,-1,-1,-1,-1,-1,-1,-1,-1,-1,-1],"split_conditions":[6.98E-1,6.039E-1,7.989E3,6.183E-1,6.129E-1,6.974E-1,9.241E-1,6.085E-1,3.926E-1,3.926E-1,8.526E-1,3.696E-1,1.7562094E-1,7.015E-1,6.977E-1,8.451E-1,8.695E-1,1.5737818E-1,4.066E-1,4.652E-1,5.715E-1,1.711481E-1,6.772E-1,1.281E-1,4.068E-1,1.2E1,1.7308734E-1,1.594E-1,5.67E-1,4.654E-1,1.617E-1,1.3177928E-1,3.506E3,-1.0704406E-1,-2.3287304E-2,2.567E-1,2.909E-1,2.924E-1,8.034E-1,2.615E0,3.333E-1,-4.0169705E-2,8.816E-1,9E0,5.408E-1,1.0853399E-1,-3.7208773E-2,1.2222739E-2,4.575E-1,9.533E-1,1.2688856E-1,-1.1283579E-1,-2.1601172E-2,-7.158666E-2,-1.257283E-1,-1.0063801E-1,1.8293789E-2,-9.185863E-2,2.0553548E-2,-6.954213E-3,1.4435063E-1,-1.14031844E-1,-5.9530564E-2,5.8324754E-2,-4.6767943E-2,7.369237E-2,-7.612615E-2,2.4744382E-2,1.6572006E-1,1.5319192E-1,3.9873E-2,7.704892E-2,-7.185758E-2,2.1918638E-2,1.5805005E-1,9.768295E-2,1.7499124E-1,-1.0265758E-1,9.449991E-3],"split_indices":[2,2,3,5,1,1,0,1,4,4,0,4,0,2,4,0,0,0,1,5,5,0,1,4,5,7,0,5,1,1,4,0,3,0,0,1,10,1,0,8,10,0,0,7,1,0,0,0,1,0,0,0,0,0,0,0,0,0,0,0,0,0,0,0,0,0,0,0,0,0,0,0,0,0,0,0,0,0,0],"split_type":[0,0,0,0,0,0,0,0,0,0,0,0,0,0,0,0,0,0,0,0,0,0,0,0,0,0,0,0,0,0,0,0,0,0,0,0,0,0,0,0,0,0,0,0,0,0,0,0,0,0,0,0,0,0,0,0,0,0,0,0,0,0,0,0,0,0,0,0,0,0,0,0,0,0,0,0,0,0,0],"sum_hessian":[8.236836E2,5.4079535E2,2.8288824E2,3.767004E2,1.6409492E2,6.1017002E1,2.2187125E2,3.665357E2,1.0164719E1,1.480743E2,1.6020622E1,3.1740078E1,2.9276922E1,1.9329779E2,2.8573454E1,3.5906326E2,7.472427E0,4.2465234E0,5.9181952E0,4.6530476E1,1.0154382E2,6.9750857E0,9.045536E0,9.160267E0,2.2579811E1,2.8553355E0,1.9044246E2,2.1499176E1,7.0742774E0,1.1061315E2,2.4845013E2,2.994212E0,4.4782147E0,4.878306E0,1.0398895E0,2.8555021E1,1.7975452E1,8.516164E1,1.6382187E1,4.154379E0,4.8911576E0,1.1425543E0,8.017713E0,8.124741E0,1.44550705E1,1.7205279E0,1.1348076E0,1.6270897E0,1.9872087E1,4.332939E0,2.7413385E0,9.802938E1,1.2583771E1,7.8198175E0,2.4063031E2,3.3864954E0,1.0917195E0,6.3485403E0,2.2206482E1,1.885148E0,1.6090303E1,2.5072098E1,6.0089535E1,9.275445E0,7.106743E0,1.813965E0,2.3404138E0,1.4112672E0,3.4798906E0,6.8083043E0,1.2094083E0,1.3556122E0,6.769128E0,1.1985815E1,2.4692552E0,5.9531417E0,1.3918945E1,3.0886896E0,1.2442496E0],"tree_param":{"num_deleted":"0","num_feature":"11","num_nodes":"79","size_leaf_vector":"1"}},{"base_weights":[-5.994253E-3,-8.939574E-1,1.2337205E0,-1.0802447E0,-2.8572756E-1,2.7922988E-1,1.4449768E0,-1.117382E0,6.512706E-2,5.3020906E-1,-5.617643E-1,6.129716E-2,1.3502603E0,1.0543581E0,1.5393491E0,-1.1451685E0,1.3831975E-1,1.4594881E-1,-8.6859345E-1,2.590287E-1,1.506063E-1,-6.869862E-1,7.082875E-1,-3.99159E-1,6.544035E-1,2.7363358E-2,1.4649063E0,4.7776E-1,1.6133693E-1,1.6511455E-1,1.3093938E0,-9.8173857E-1,-1.2137613E0,9.708607E-1,-9.908369E-2,-1.03238024E-1,-3.4695265E-1,-7.376551E-1,7.463593E-1,-8.609078E-1,-8.841535E-3,1.4324118E-1,-2.5966513E-1,-9.825212E-1,-8.724015E-2,1.1147295E0,-2.1589112E-1,1.6797146E-1,7.183391E-1,8.9882505E-1,9.6605875E-2,1.4909291E0,5.642085E-1,-1.08641826E-1,-1.8168235E-2,-6.759111E-2,-1.2288113E-1,-2.746585E-2,1.3587277E-1,-7.622846E-2,2.8320039E-2,2.0469537E-2,-9.075251E-2,-5.145483E-2,9.149297E-2,-1.0264678E-1,-4.4940304E-2,-9.0096466E-2,3.161987E-2,-6.481402E-2,4.0127117E-2,-1.118292E-1,8.715327E-3,2.6257569E-2,-8.832102E-2,4.53959E-2,1.4652488E-1,-7.1494766E-2,8.8398784E-2,-3.120167E-2,1.2247934E-1,2.7617145E-2,1.467885E-1,-3.0193312E-2,7.1907066E-2,5.071125E-2,1.5155058E-1,7.5200776E-4,1.4214315E-1],"categories":[],"categories_nodes":[],"categories_segments":[],"categories_sizes":[],"default_left":[0,0,0,0,0,0,0,0,0,0,0,0,0,0,0,0,0,0,0,0,0,0,0,0,0,0,0,0,0,0,0,0,0,0,0,0,0,0,0,0,0,0,0,0,0,0,0,0,0,0,0,0,0,0,0,0,0,0,0,0,0,0,0,0,0,0,0,0,0,0,0,0,0,0,0,0,0,0,0,0,0,0,0,0,0,0,0,0,0],"id":5,"left_children":[1,3,5,7,9,11,13,15,17,19,21,23,25,27,29,31,33,-1,35,37,-1,39,41,43,45,-1,47,49,-1,-1,51,53,55,57,-1,-1,59,61,63,65,67,-1,69,71,73,75,77,-1,79,81,83,85,87,-1,-1,-1,-1,-1,-1,-1,-1,-1,-1,-1,-1,-1,-1,-1,-1,-1,-1,-1,-1,-1,-1,-1,-1,-1,-1,-1,-1,-1,-1,-1,-1,-1,-1,-1,-1],"loss_changes":[8.726791E2,5.2027435E1,6.630951E1,1.5098267E1,2.499641E1,1.4201103E1,8.354187E0,1.2098419E1,1.6941418E1,7.0818043E0,1.35953045E1,1.4434154E1,8.7039185E-1,1.7227535E1,3.386261E0,2.5627136E0,8.765153E0,0E0,3.1141233E-1,1.186906E1,0E0,8.901314E0,5.90203E0,5.3433843E0,9.478989E0,0E0,2.492733E-1,4.5526156E0,0E0,0E0,9.362808E0,8.532539E0,1.0446777E0,2.925363E0,0E0,0E0,1.1002254E0,1.4912372E0,3.9029617E0,3.6336975E0,5.048731E0,0E0,1.344358E0,1.5930014E0,5.950797E0,2.8657188E0,5.470774E0,0E0,2.3523927E0,4.4185753E0,4.2591367E0,6.832886E-1,7.80825E0,0E0,0E0,0E0,0E0,0E0,0E0,0E0,0E0,0E0,0E0,0E0,0E0,0E0,0E0,0E0,0E0,0E0,0E0,0E0,0E0,0E0,0E0,0E0,0E0,0E0,0E0,0E0,0E0,0E0,0E0,0E0,0E0,0E0,0E0,0E0,0E0],"parents":[2147483647,0,0,1,1,2,2,3,3,4,4,5,5,6,6,7,7,8,8,9,9,10,10,11,11,12,12,13,13,14,14,15,15,16,16,18,18,19,19,21,21,22,22,23,23,24,24,26,26,27,27,30,30,31,31,32,32,33,33,36,36,37,37,38,38,39,39,40,40,42,42,43,43,44,44,45,45,46,46,48,48,49,49,50,50,51,51,52,52],"right_children":[2,4,6,8,10,12,14,16,18,20,22,24,26,28,30,32,34,-1,36,38,-1,40,42,44,46,-1,48,50,-1,-1,52,54,56,58,-1,-1,60,62,64,66,68,-1,70,72,74,76,78,-1,80,82,84,86,88,-1,-1,-1,-1,-1,-1,-1,-1,-1,-1,-1,-1,-1,-1,-1,-1,-1,-1,-1,-1,-1,-1,-1,-1,-1,-1,-1,-1,-1,-1,-1,-1,-1,-1,-1,-1],"split_conditions":[6.69E-1,6.039E-1,7.04E-1,6.093E-1,3.527E-1,5.942E-1,7.933E3,6.085E-1,3.926E-1,5.857E-1,6.085E-1,4.268E-1,2.237E0,6.974E-1,6.341E-1,8.451E-1,9.065E-1,1.4594881E-1,3.095E-1,3.325E-1,1.506063E-1,5.354E-1,8.519E-1,2.645E-1,6.533E-1,2.7363358E-2,3.789E0,4.882E-1,1.6133693E-1,1.6511455E-1,8.972E-1,4.654E-1,1.617E-1,3.506E3,-9.908369E-2,-1.03238024E-1,5E0,7.208E-1,4E0,3.469E-1,1.851E-1,1.4324118E-1,6.772E-1,6.98E-1,3.776E0,5.107E-1,1E0,1.6797146E-1,6.316E-1,4.834E-1,7.554E-1,2.053E0,5.67E-1,-1.08641826E-1,-1.8168235E-2,-6.759111E-2,-1.2288113E-1,-2.746585E-2,1.3587277E-1,-7.622846E-2,2.8320039E-2,2.0469537E-2,-9.075251E-2,-5.145483E-2,9.149297E-2,-1.0264678E-1,-4.4940304E-2,-9.0096466E-2,3.161987E-2,-6.481402E-2,4.0127117E-2,-1.118292E-1,8.715327E-3,2.6257569E-2,-8.832102E-2,4.53959E-2,1.4652488E-1,-7.1494766E-2,8.8398784E-2,-3.120167E-2,1.2247934E-1,2.7617145E-2,1.467885E-1,-3.0193312E-2,7.1907066E-2,5.071125E-2,1.5155058E-1,7.5200776E-4,1.4214315E-1],"split_indices":[2,2,2,5,4,1,3,1,4,5,1,5,8,1,4,0,0,0,1,1,0,5,0,5,4,0,8,4,0,0,0,1,4,3,0,0,6,0,6,9,1,0,1,2,8,5,10,0,1,5,2,8,1,0,0,0,0,0,0,0,0,0,0,0,0,0,0,0,0,0,0,0,0,0,0,0,0,0,0,0,0,0,0,0,0,0,0,0,0],"split_type":[0,0,0,0,0,0,0,0,0,0,0,0,0,0,0,0,0,0,0,0,0,0,0,0,0,0,0,0,0,0,0,0,0,0,0,0,0,0,0,0,0,0,0,0,0,0,0,0,0,0,0,0,0,0,0,0,0,0,0,0,0,0,0,0,0,0,0,0,0,0,0,0,0,0,0,0,0,0,0,0,0,0,0,0,0,0,0,0,0],"sum_hessian":[7.90751E2,4.6090222E2,3.2984875E2,3.522422E2,1.0866001E2,6.0195812E1,2.6965295E2,3.412035E2,1.1038709E1,2.723508E1,8.1424934E1,5.0896626E1,9.299188E0,5.4839146E1,2.1481381E2,3.3390283E2,7.3006525E0,4.2014427E0,6.837266E0,2.230279E1,4.932291E0,7.4535164E1,6.8897724E0,2.8836504E1,2.2060122E1,1.2208747E0,8.078313E0,2.7907896E1,2.693125E1,1.4038373E2,7.443008E1,1.03238396E2,2.3066444E2,4.282962E0,3.0176907E0,4.4583225E0,2.3789437E0,7.1552587E0,1.5147531E1,5.9106735E1,1.5428424E1,3.6668036E0,3.2229688E0,9.297691E0,1.9538813E1,1.4244759E1,7.8153634E0,5.30267E0,2.7756426E0,1.2614431E1,1.5293466E1,5.9045246E1,1.5384829E1,9.0977E1,1.2261401E1,7.528389E0,2.2313605E2,1.0863494E0,3.1966126E0,1.3074956E0,1.0714481E0,1.061515E0,6.093744E0,1.5442338E0,1.3603296E1,4.108333E1,1.8023407E1,3.6469498E0,1.1781474E1,2.0420716E0,1.1808974E0,8.21015E0,1.0875416E0,1.4039014E1,5.499799E0,5.732817E0,8.511942E0,5.6167903E0,2.1985734E0,1.0412308E0,1.734412E0,6.7328243E0,5.8816066E0,9.637747E0,5.6557198E0,1.9663137E0,5.7078934E1,9.939075E0,5.4457536E0],"tree_param":{"num_deleted":"0","num_feature":"11","num_nodes":"89","size_leaf_vector":"1"}},{"base_weights":[-5.7494743E-3,-8.576612E-1,1.1425053E0,-1.0467086E0,-2.653461E-1,3.444881E-1,1.3654486E0,-1.0838134E0,5.925112E-2,4.8433536E-1,-5.25939E-1,5.41884E-1,-6.909543E-1,1.1977892E0,1.544155E-1,-1.1118952E0,1.2728651E-1,1.3654564E-1,-8.3511853E-1,1.5719715E-1,1.1893775E0,-6.454662E-1,6.631088E-1,3.8100442E-1,1.4237943E0,-8.9700633E-1,2.861E-2,4.0592268E-1,1.331386E0,-9.419314E-1,-1.1845025E0,8.969104E-1,-9.557026E-2,-9.995558E-2,-3.3033592E-1,-3.164455E-1,8.9542174E-1,1.3909973E-1,3.0757723E-2,-8.150962E-1,-1.2024784E-2,1.3424972E-1,-2.4265559E-1,1.9357088E-1,1.2532676E0,7.211712E-3,1.6941802E-1,-5.6027707E-2,-1.1187774E0,8.021549E-1,1.7078564E-2,-5.9376977E-2,1.3806995E0,-1.103416E-1,-4.0035076E-2,-6.380774E-2,-1.2005278E-1,-2.620904E-2,1.2559924E-1,-7.356193E-2,2.6641792E-2,9.1956034E-2,-6.26041E-2,-8.1297784E-4,1.3917479E-1,-9.8035365E-2,-4.1679684E-2,4.744274E-2,-5.3798586E-2,-6.1582547E-2,3.7846874E-2,7.974247E-2,-5.4512518E-3,5.0052084E-2,1.4718424E-1,-2.9869739E-2,2.193502E-2,-3.190057E-2,-1.2046154E-1,-3.5129484E-2,1.0642501E-1,4.464602E-2,-6.967732E-2,7.094341E-2,-5.7306465E-2,1.5411967E-1,1.08991444E-1],"categories":[],"categories_nodes":[],"categories_segments":[],"categories_sizes":[],"default_left":[0,0,0,0,0,0,0,0,0,0,0,0,0,0,0,0,0,0,0,0,0,0,0,0,0,0,0,0,0,0,0,0,0,0,0,0,0,0,0,0,0,0,0,0,0,0,0,0,0,0,0,0,0,0,0,0,0,0,0,0,0,0,0,0,0,0,0,0,0,0,0,0,0,0,0,0,0,0,0,0,0,0,0,0,0,0,0],"id":6,"left_children":[1,3,5,7,9,11,13,15,17,19,21,23,25,27,-1,29,31,-1,33,35,37,39,41,43,45,47,-1,49,51,53,55,57,-1,-1,59,61,63,-1,-1,65,67,-1,69,71,73,-1,-1,75,77,79,81,83,85,-1,-1,-1,-1,-1,-1,-1,-1,-1,-1,-1,-1,-1,-1,-1,-1,-1,-1,-1,-1,-1,-1,-1,-1,-1,-1,-1,-1,-1,-1,-1,-1,-1,-1],"loss_changes":[7.4191797E2,4.8476746E1,5.700226E1,1.3594757E1,2.1096598E1,1.5065736E1,5.7055664E0,1.099295E1,1.4751534E1,6.2800827E0,1.1747402E1,8.102333E0,2.662116E0,1.3694733E1,0E0,2.7338257E0,7.631702E0,0E0,2.9536295E-1,7.382923E0,1.1250172E0,7.8208294E0,5.106002E0,8.405289E0,3.1797962E0,1.8227282E0,0E0,3.2007468E0,7.948242E0,8.151268E0,1.1138916E0,2.521266E0,0E0,0E0,1.0050819E0,5.5914755E0,3.6872563E0,0E0,0E0,3.3740578E0,4.453415E0,0E0,1.2010734E0,6.743086E0,7.7258015E-1,0E0,0E0,2.7684078E-1,1.6128254E-1,3.4912248E0,3.8517945E0,2.3363268E0,3.4917603E0,0E0,0E0,0E0,0E0,0E0,0E0,0E0,0E0,0E0,0E0,0E0,0E0,0E0,0E0,0E0,0E0,0E0,0E0,0E0,0E0,0E0,0E0,0E0,0E0,0E0,0E0,0E0,0E0,0E0,0E0,0E0,0E0,0E0,0E0],"parents":[2147483647,0,0,1,1,2,2,3,3,4,4,5,5,6,6,7,7,8,8,9,9,10,10,11,11,12,12,13,13,15,15,16,16,18,18,19,19,20,20,21,21,22,22,23,23,24,24,25,25,27,27,28,28,29,29,30,30,31,31,34,34,35,35,36,36,39,39,40,40,42,42,43,43,44,44,47,47,48,48,49,49,50,50,51,51,52,52],"right_children":[2,4,6,8,10,12,14,16,18,20,22,24,26,28,-1,30,32,-1,34,36,38,40,42,44,46,48,-1,50,52,54,56,58,-1,-1,60,62,64,-1,-1,66,68,-1,70,72,74,-1,-1,76,78,80,82,84,86,-1,-1,-1,-1,-1,-1,-1,-1,-1,-1,-1,-1,-1,-1,-1,-1,-1,-1,-1,-1,-1,-1,-1,-1,-1,-1,-1,-1,-1,-1,-1,-1,-1,-1],"split_conditions":[6.69E-1,6.039E-1,7.097E-1,6.093E-1,3.527E-1,7.555E-1,5.67E-1,6.085E-1,3.926E-1,5.382E-1,6.085E-1,5.715E-1,5.533E-1,7.933E3,1.544155E-1,8.451E-1,9.065E-1,1.3654564E-1,3.095E-1,4.811E-1,7.989E3,5.354E-1,8.519E-1,6.085E-1,3.333E-1,5E0,2.861E-2,4.882E-1,1.618E-1,3.611E-1,1.617E-1,3.506E3,-9.557026E-2,-9.995558E-2,5E0,7.453E-1,7.076E3,1.3909973E-1,3.0757723E-2,3.469E-1,6.505E-1,1.3424972E-1,6.772E-1,7.878E-1,2.345E-1,7.211712E-3,1.6941802E-1,4.068E-1,7.251E-1,3.777E-1,6.183E-1,9.952E3,6.248E-1,-1.103416E-1,-4.0035076E-2,-6.380774E-2,-1.2005278E-1,-2.620904E-2,1.2559924E-1,-7.356193E-2,2.6641792E-2,9.1956034E-2,-6.26041E-2,-8.1297784E-4,1.3917479E-1,-9.8035365E-2,-4.1679684E-2,4.744274E-2,-5.3798586E-2,-6.1582547E-2,3.7846874E-2,7.974247E-2,-5.4512518E-3,5.0052084E-2,1.4718424E-1,-2.9869739E-2,2.193502E-2,-3.190057E-2,-1.2046154E-1,-3.5129484E-2,1.0642501E-1,4.464602E-2,-6.967732E-2,7.094341E-2,-5.7306465E-2,1.5411967E-1,1.08991444E-1],"split_indices":[2,2,2,5,4,4,1,1,4,5,1,5,1,3,0,0,0,0,1,1,3,5,0,1,10,6,0,4,5,1,4,3,0,0,6,0,3,0,0,9,4,0,1,0,5,0,0,5,0,1,5,3,4,0,0,0,0,0,0,0,0,0,0,0,0,0,0,0,0,0,0,0,0,0,0,0,0,0,0,0,0,0,0,0,0,0,0],"split_type":[0,0,0,0,0,0,0,0,0,0,0,0,0,0,0,0,0,0,0,0,0,0,0,0,0,0,0,0,0,0,0,0,0,0,0,0,0,0,0,0,0,0,0,0,0,0,0,0,0,0,0,0,0,0,0,0,0,0,0,0,0,0,0,0,0,0,0,0,0,0,0,0,0,0,0,0,0,0,0,0,0,0,0,0,0,0,0],"sum_hessian":[7.5644147E2,4.344029E2,3.2203854E2,3.287194E2,1.0568351E2,7.087812E1,2.5116043E2,3.1806824E2,1.065114E1,2.7038822E1,7.864469E1,5.9929817E1,1.0948307E1,1.3355959E2,1.1760085E2,3.109404E2,7.1278563E0,4.1148195E0,6.53632E0,1.9304522E1,7.7342997E0,7.1876564E1,6.768124E0,5.1895054E1,8.034762E0,9.109188E0,1.8391185E0,1.9863197E1,1.1369638E2,9.725436E1,2.1368604E2,4.2671995E0,2.8606567E0,4.190921E0,2.3453999E0,1.2107639E1,7.1968827E0,5.82499E0,1.9093097E0,5.646813E1,1.5408438E1,3.5918264E0,3.1762974E0,4.3721924E1,8.173131E0,1.550489E0,6.484274E0,2.162271E0,6.9469175E0,9.311677E0,1.0551521E1,3.8863893E0,1.0981E2,7.4117226E1,2.3137125E1,7.2512565E0,2.0643478E2,1.0732391E0,3.1939604E0,1.2581975E0,1.0872022E0,2.030605E0,1.0077035E1,2.9003944E0,4.2964883E0,3.8876587E1,1.7591541E1,8.055774E0,7.352664E0,1.9895264E0,1.1867712E0,1.2086973E1,3.163495E1,2.579512E0,5.593619E0,1.1043816E0,1.0578895E0,1.1304675E0,5.81645E0,1.6610891E0,7.6505876E0,6.822416E0,3.7291055E0,1.4040122E0,2.482377E0,6.798559E1,4.1824406E1],"tree_param":{"num_deleted":"0","num_feature":"11","num_nodes":"87","size_leaf_vector":"1"}},{"base_weights":[-5.4979445E-3,-8.231723E-1,1.0611691E0,-1.0817921E0,-3.837462E-1,2.2567363E-1,1.2556376E0,-1.1111367E0,1.0432912E-1,3.6135083E-1,-6.4126474E-1,8.0482644E-1,-8.325514E-2,8.85178E-1,1.3484923E0,-1.1192786E0,3.340181E-2,1.1599133E-1,-7.515802E-1,7.368702E-1,-3.3906E-1,-7.5787085E-1,7.216052E-1,1.917736E-1,1.2743267E0,4.8453006E-1,-5.2325267E-1,3.760591E-1,1.4211977E-1,1.4234891E0,1.0264643E0,-1.1588639E0,-9.0540653E-1,-8.886211E-2,-1.6120376E-2,3.53178E-1,1.1576122E0,-1.086561E-1,2.9853958E-1,-8.929475E-1,-1.3421394E-1,1.0818527E0,-8.269684E-2,-2.591003E-1,1.3082813E-1,-1.06922565E-2,1.5315525E-1,8.8926035E-1,-5.211867E-1,-8.179387E-1,6.877541E-1,-7.328837E-2,4.932248E-1,1.4279168E0,4.3860596E-2,1.2790142E0,1.7253625E-1,-1.1648686E-1,-5.08429E-2,6.1718263E-2,-9.6442275E-2,-2.7947183E-4,1.2556653E-1,1.3353162E-1,3.084713E-3,-7.9283826E-2,5.8452275E-2,-1.0324766E-1,-4.3617595E-2,-9.571075E-2,2.2905031E-2,6.228706E-3,1.2788986E-1,-7.193648E-2,1.0933786E-1,-2.9604439E-2,1.3819931E-1,-8.376364E-2,4.387939E-2,1.06125735E-2,-9.9644266E-2,1.0924864E-1,-4.048314E-2,-4.0766355E-2,6.417141E-2,4.8781466E-2,1.4330243E-1,-9.545205E-3,1.3576597E-1,-5.9241887E-2,1.139374E-1],"categories":[],"categories_nodes":[],"categories_segments":[],"categories_sizes":[],"default_left":[0,0,0,0,0,0,0,0,0,0,0,0,0,0,0,0,0,0,0,0,0,0,0,0,0,0,0,0,0,0,0,0,0,0,0,0,0,0,0,0,0,0,0,0,0,0,0,0,0,0,0,0,0,0,0,0,0,0,0,0,0,0,0,0,0,0,0,0,0,0,0,0,0,0,0,0,0,0,0,0,0,0,0,0,0,0,0,0,0,0,0],"id":7,"left_children":[1,3,5,7,9,11,13,15,17,19,21,23,25,27,29,31,-1,-1,33,35,37,39,41,43,45,47,49,51,-1,53,55,57,59,-1,-1,61,63,-1,65,67,69,71,-1,73,-1,-1,-1,75,77,79,81,-1,83,85,-1,87,89,-1,-1,-1,-1,-1,-1,-1,-1,-1,-1,-1,-1,-1,-1,-1,-1,-1,-1,-1,-1,-1,-1,-1,-1,-1,-1,-1,-1,-1,-1,-1,-1,-1,-1],"loss_changes":[6.3176074E2,4.61817E1,5.078604E1,9.080688E0,2.9677017E1,1.0903209E1,7.569458E0,3.332306E0,7.315806E0,1.0785085E1,1.8727932E1,5.8466806E0,1.0347279E1,1.4192791E1,3.4121704E0,1.0694275E0,0E0,0E0,2.245121E-1,3.8514957E0,7.313755E0,8.799263E0,6.210678E0,5.5517774E0,4.3587055E0,7.855118E0,8.857583E0,4.1343083E0,0E0,7.614136E-2,8.772751E0,2.1853638E-1,4.5181274E0,0E0,0E0,4.9001493E0,2.3912888E0,0E0,3.178432E0,5.084831E0,6.205493E0,1.5604925E0,0E0,5.897894E0,0E0,0E0,0E0,8.187353E0,2.1420622E0,3.2647982E0,2.6941724E0,0E0,3.8547735E0,6.881714E-2,0E0,3.591652E0,8.569545E0,0E0,0E0,0E0,0E0,0E0,0E0,0E0,0E0,0E0,0E0,0E0,0E0,0E0,0E0,0E0,0E0,0E0,0E0,0E0,0E0,0E0,0E0,0E0,0E0,0E0,0E0,0E0,0E0,0E0,0E0,0E0,0E0,0E0,0E0],"parents":[2147483647,0,0,1,1,2,2,3,3,4,4,5,5,6,6,7,7,8,8,9,9,10,10,11,11,12,12,13,13,14,14,15,15,18,18,19,19,20,20,21,21,22,22,23,23,24,24,25,25,26,26,27,27,29,29,30,30,31,31,32,32,35,35,36,36,38,38,39,39,40,40,41,41,43,43,47,47,48,48,49,49,50,50,52,52,53,53,55,55,56,56],"right_children":[2,4,6,8,10,12,14,16,18,20,22,24,26,28,30,32,-1,-1,34,36,38,40,42,44,46,48,50,52,-1,54,56,58,60,-1,-1,62,64,-1,66,68,70,72,-1,74,-1,-1,-1,76,78,80,82,-1,84,86,-1,88,90,-1,-1,-1,-1,-1,-1,-1,-1,-1,-1,-1,-1,-1,-1,-1,-1,-1,-1,-1,-1,-1,-1,-1,-1,-1,-1,-1,-1,-1,-1,-1,-1,-1,-1],"split_conditions":[6.69E-1,5.61E-1,7.04E-1,6.093E-1,3.655E-1,3.959E-1,7.933E3,6.676E-1,3.926E-1,8.749E-1,6.085E-1,3.518E-1,8.256E-1,6.974E-1,8.972E-1,3.571E-1,3.340181E-2,1.1599133E-1,5.36E-1,5.714E-1,6.308E-1,5.497E-1,9.065E-1,1.4E1,1.594E-1,7.555E-1,5.942E-1,2.118E-1,1.4211977E-1,9.665E-1,6.977E-1,6.129E-1,1.534E-1,-8.886211E-2,-1.6120376E-2,5.756E-1,8.495E-1,-1.086561E-1,8E0,4.778E-1,1.851E-1,5.649E3,-8.269684E-2,6.206E-1,1.3082813E-1,-1.06922565E-2,1.5315525E-1,5.121E-1,5.222E-1,4E0,1.3E1,-7.328837E-2,3.848E-1,5.75E-2,4.3860596E-2,1.116E-1,5.67E-1,-1.1648686E-1,-5.08429E-2,6.1718263E-2,-9.6442275E-2,-2.7947183E-4,1.2556653E-1,1.3353162E-1,3.084713E-3,-7.9283826E-2,5.8452275E-2,-1.0324766E-1,-4.3617595E-2,-9.571075E-2,2.2905031E-2,6.228706E-3,1.2788986E-1,-7.193648E-2,1.0933786E-1,-2.9604439E-2,1.3819931E-1,-8.376364E-2,4.387939E-2,1.06125735E-2,-9.9644266E-2,1.0924864E-1,-4.048314E-2,-4.0766355E-2,6.417141E-2,4.8781466E-2,1.4330243E-1,-9.545205E-3,1.3576597E-1,-5.9241887E-2,1.139374E-1],"split_indices":[2,2,2,5,4,4,3,1,4,0,1,5,0,1,0,5,0,0,2,10,2,5,0,7,1,4,1,5,0,4,4,1,4,0,0,5,0,0,7,1,1,3,0,1,0,0,0,4,1,6,7,0,1,1,0,5,1,0,0,0,0,0,0,0,0,0,0,0,0,0,0,0,0,0,0,0,0,0,0,0,0,0,0,0,0,0,0,0,0,0,0],"split_type":[0,0,0,0,0,0,0,0,0,0,0,0,0,0,0,0,0,0,0,0,0,0,0,0,0,0,0,0,0,0,0,0,0,0,0,0,0,0,0,0,0,0,0,0,0,0,0,0,0,0,0,0,0,0,0,0,0,0,0,0,0,0,0,0,0,0,0,0,0,0,0,0,0,0,0,0,0,0,0,0,0,0,0,0,0,0,0,0,0,0,0],"sum_hessian":[7.223399E2,4.0902338E2,3.1331656E2,2.565636E2,1.5245978E2,5.956554E1,2.53751E2,2.5043118E2,6.132429E0,3.9055233E1,1.1340454E2,2.0162125E1,3.9403416E1,5.2966152E1,2.0078485E2,2.492524E2,1.1787788E0,2.5868773E0,3.545552E0,2.5390354E1,1.366488E1,1.04875404E2,8.529143E0,9.3551035E0,1.080702E1,1.7159327E1,2.224409E1,2.8037409E1,2.4928743E1,1.6008286E2,4.0702E1,2.065954E2,4.2656994E1,2.467587E0,1.077965E0,1.4241946E1,1.1148408E1,5.966181E0,7.698699E0,8.58496E1,1.9025797E1,7.163965E0,1.3651782E0,7.2110405E0,2.144063E0,1.7883375E0,9.018683E0,1.2317994E1,4.841333E0,1.8151651E1,4.0924377E0,2.1770542E0,2.5860355E1,1.589186E2,1.1642606E0,3.1027729E1,9.674272E0,2.0392194E2,2.6734657E0,1.2387975E0,4.1418198E1,1.0928331E1,3.3136153E0,9.46982E0,1.6785884E0,1.2305002E0,6.4681983E0,6.47961E1,2.1053505E1,5.326061E0,1.3699736E1,1.3734566E0,5.7905083E0,5.729379E0,1.4816612E0,3.7342243E0,8.58377E0,3.7369294E0,1.1044035E0,3.0043669E0,1.51472845E1,2.986298E0,1.1061397E0,3.4123197E0,2.2448036E1,1.3802234E0,1.5753836E2,1.6677222E0,2.9360006E1,5.6172247E0,4.057047E0],"tree_param":{"num_deleted":"0","num_feature":"11","num_nodes":"91","size_leaf_vector":"1"}},{"base_weights":[-5.2369153E-3,-7.905612E-1,9.946193E-1,-1.054391E0,-3.5971552E-1,2.1096338E-1,1.1817393E0,-1.0840404E0,9.830466E-2,3.3061582E-1,-6.0694224E-1,2.9808179E-2,1.0988774E0,8.177229E-1,1.2752489E0,-1.0925455E0,3.1509172E-2,1.102072E-1,-7.2356707E-1,6.723679E-1,-3.2356754E-1,-7.192125E-1,6.636369E-1,-9.0346056E-1,2.4040203E-1,1.2561868E-1,3.2254037E-2,3.3623895E-1,1.3506469E-1,1.3917568E-1,1.0628324E0,-1.1345973E0,-8.696828E-1,-8.598483E-2,-1.5367334E-2,4.543147E-1,1.3029186E-1,-1.05398014E-1,2.652925E-1,-8.5383713E-1,-1.2612803E-1,9.997587E-1,-7.962846E-2,-1.0414493E0,1.0560071E-2,8.456005E-1,-1.0964644E-1,4.5577744E-1,-5.986229E-1,3.3835098E-1,1.2121868E0,-1.1502995E-1,-7.529308E-2,-1.1035728E-1,-3.6324423E-2,-1.9491035E-2,8.9643806E-2,-7.634433E-2,5.2940954E-2,-9.96647E-2,-4.0490374E-2,-9.173019E-2,2.0609677E-2,-1.4702237E-3,1.1620623E-1,-2.4253508E-2,-1.13855414E-1,-1.9579299E-2,1.12051025E-1,2.9605974E-2,-7.0515886E-2,-6.1102565E-2,5.568211E-2,2.1806336E-3,-9.162106E-2,-1.3382374E-2,1.0516111E-1,3.0052522E-2,1.2358192E-1],"categories":[],"categories_nodes":[],"categories_segments":[],"categories_sizes":[],"default_left":[0,0,0,0,0,0,0,0,0,0,0,0,0,0,0,0,0,0,0,0,0,0,0,0,0,0,0,0,0,0,0,0,0,0,0,0,0,0,0,0,0,0,0,0,0,0,0,0,0,0,0,0,0,0,0,0,0,0,0,0,0,0,0,0,0,0,0,0,0,0,0,0,0,0,0,0,0,0,0],"id":8,"left_children":[1,3,5,7,9,11,13,15,17,19,21,23,25,27,29,31,-1,-1,33,35,37,39,41,43,45,-1,-1,47,-1,-1,49,51,53,-1,-1,55,-1,-1,57,59,61,63,-1,65,-1,67,69,71,73,75,77,-1,-1,-1,-1,-1,-1,-1,-1,-1,-1,-1,-1,-1,-1,-1,-1,-1,-1,-1,-1,-1,-1,-1,-1,-1,-1,-1,-1],"loss_changes":[5.413723E2,4.35148E1,4.4226654E1,8.274109E0,2.5489416E1,9.566836E0,7.2839966E0,3.1177063E0,6.497684E0,9.097673E0,1.6090832E1,1.0161223E1,8.2646275E-1,1.3089905E1,3.2932434E0,1.1864319E0,0E0,0E0,2.0980573E-1,3.0399628E0,6.4322906E0,7.960396E0,5.4119554E0,1.4362493E0,9.005223E0,0E0,0E0,3.5205438E0,0E0,0E0,7.438698E0,2.8334045E-1,4.46649E0,0E0,0E0,6.2492776E0,0E0,0E0,2.7731223E0,4.8652763E0,5.4110637E0,1.3490171E0,0E0,3.8105583E-1,0E0,4.6658354E0,6.8622336E0,3.1789465E0,7.5435364E-1,4.783331E0,9.159546E-1,0E0,0E0,0E0,0E0,0E0,0E0,0E0,0E0,0E0,0E0,0E0,0E0,0E0,0E0,0E0,0E0,0E0,0E0,0E0,0E0,0E0,0E0,0E0,0E0,0E0,0E0,0E0,0E0],"parents":[2147483647,0,0,1,1,2,2,3,3,4,4,5,5,6,6,7,7,8,8,9,9,10,10,11,11,12,12,13,13,14,14,15,15,18,18,19,19,20,20,21,21,22,22,23,23,24,24,27,27,30,30,31,31,32,32,35,35,38,38,39,39,40,40,41,41,43,43,45,45,46,46,47,47,48,48,49,49,50,50],"right_children":[2,4,6,8,10,12,14,16,18,20,22,24,26,28,30,32,-1,-1,34,36,38,40,42,44,46,-1,-1,48,-1,-1,50,52,54,-1,-1,56,-1,-1,58,60,62,64,-1,66,-1,68,70,72,74,76,78,-1,-1,-1,-1,-1,-1,-1,-1,-1,-1,-1,-1,-1,-1,-1,-1,-1,-1,-1,-1,-1,-1,-1,-1,-1,-1,-1,-1],"split_conditions":[6.69E-1,5.61E-1,7.04E-1,6.093E-1,3.655E-1,5.942E-1,7.933E3,6.676E-1,3.926E-1,8.749E-1,6.085E-1,2.645E-1,8.908E-1,6.974E-1,6.248E-1,3.571E-1,3.1509172E-2,1.102072E-1,5.36E-1,5.857E-1,6.308E-1,5.497E-1,9.065E-1,6.98E-1,3.926E-1,1.2561868E-1,3.2254037E-2,7.86E-1,1.3506469E-1,1.3917568E-1,2.775E-1,5.469E-1,1.875E-1,-8.598483E-2,-1.5367334E-2,3.566E-1,1.3029186E-1,-1.05398014E-1,8E0,4.778E-1,1.851E-1,1.594E-1,-7.962846E-2,6.743E-1,1.0560071E-2,3.333E-1,8.394E-1,2.118E-1,7E0,5.67E-1,2.053E0,-1.1502995E-1,-7.529308E-2,-1.1035728E-1,-3.6324423E-2,-1.9491035E-2,8.9643806E-2,-7.634433E-2,5.2940954E-2,-9.96647E-2,-4.0490374E-2,-9.173019E-2,2.0609677E-2,-1.4702237E-3,1.1620623E-1,-2.4253508E-2,-1.13855414E-1,-1.9579299E-2,1.12051025E-1,2.9605974E-2,-7.0515886E-2,-6.1102565E-2,5.568211E-2,2.1806336E-3,-9.162106E-2,-1.3382374E-2,1.0516111E-1,3.0052522E-2,1.2358192E-1],"split_indices":[2,2,2,5,4,1,3,1,4,0,1,5,0,1,4,5,0,0,2,5,2,5,0,2,4,0,0,4,0,0,5,1,1,0,0,1,0,0,7,1,1,5,0,2,0,5,0,5,6,1,8,0,0,0,0,0,0,0,0,0,0,0,0,0,0,0,0,0,0,0,0,0,0,0,0,0,0,0,0],"split_type":[0,0,0,0,0,0,0,0,0,0,0,0,0,0,0,0,0,0,0,0,0,0,0,0,0,0,0,0,0,0,0,0,0,0,0,0,0,0,0,0,0,0,0,0,0,0,0,0,0,0,0,0,0,0,0,0,0,0,0,0,0,0,0,0,0,0,0,0,0,0,0,0,0,0,0,0,0,0,0],"sum_hessian":[6.8745917E2,3.8515414E2,3.0230505E2,2.3797937E2,1.4717477E2,5.86803E1,2.4362476E2,2.3206969E2,5.9096756E0,3.8719894E1,1.0845487E2,4.959528E1,9.085024E0,5.1783875E1,1.9184088E2,2.308853E2,1.1843916E0,2.506955E0,3.4027207E0,2.5415028E1,1.3304867E1,1.000484E2,8.406471E0,8.525144E0,4.1070133E1,7.0403438E0,2.0446808E0,2.8061718E1,2.3722157E1,1.2030372E2,7.153717E1,1.9079356E2,4.009174E1,2.3354475E0,1.0672731E0,2.0162918E1,5.2521105E0,5.5860963E0,7.7187705E0,8.1181335E1,1.8867067E1,7.089445E0,1.3170258E0,7.4713435E0,1.0538005E0,1.4531306E1,2.6538828E1,2.5334698E1,2.72702E0,1.2785124E1,5.875205E1,1.8131996E2,9.473602E0,2.6619087E1,1.3472652E1,8.394854E0,1.17680645E1,1.1906481E0,6.5281224E0,6.066364E1,2.0517696E1,5.0587835E0,1.3808285E1,1.1032314E0,5.9862137E0,1.1887509E0,6.282593E0,3.0949671E0,1.1436339E1,1.6084053E1,1.0454774E1,1.7553066E0,2.3579391E1,1.2386229E0,1.4883971E0,8.181433E0,4.603691E0,1.8310933E0,5.692095E1],"tree_param":{"num_deleted":"0","num_feature":"11","num_nodes":"79","size_leaf_vector":"1"}},{"base_weights":[-5.632106E-3,-7.601612E-1,9.3302435E-1,-1.029071E0,-3.379377E-1,2.6110637E-1,1.1375163E0,-1.05904E0,9.263949E-2,3.028889E-1,-5.7461166E-1,4.3155965E-1,-6.6174686E-1,9.6873677E-1,1.3243396E0,-1.0679373E0,2.9729104E-2,1.0508367E-1,-6.970353E-1,6.166693E-1,-3.094252E-1,-7.435941E-1,2.2445907E-1,2.935895E-1,1.2140496E0,-8.5588163E-1,2.4054576E-2,2.2720364E-1,1.0926158E0,1.3310288E-1,4.5006443E-2,-1.13011E0,-8.946761E-1,-8.379074E-2,-1.2813623E-2,2.7571675E-1,9.868099E-1,-1.0237964E-1,2.3556098E-1,-8.892616E-1,-1.8697567E-1,9.20426E-1,-3.7652746E-1,-8.007942E-1,4.0171772E-1,3.2148666E-3,1.4581428E-1,-3.7992816E-2,-1.0826131E0,4.4622445E-1,-5.422325E-1,4.8843682E-1,1.2202209E0,-1.136202E-1,-4.2478915E-2,-1.1050345E-1,-4.889397E-2,-2.2436008E-3,1.2010431E-1,1.1459956E-1,-8.6453365E-4,-3.4888662E-2,6.850085E-2,-1.0235925E-1,-5.4745067E-2,-6.6942684E-2,2.8902764E-2,2.2353133E-2,1.4484283E-1,6.768125E-2,-8.1309885E-2,-1.00367524E-1,-4.8306803E-3,5.8978688E-2,-5.8817626E-3,-2.8665498E-2,2.2669911E-2,-3.0705506E-2,-1.164689E-1,6.0334828E-2,-8.116982E-2,2.6954576E-2,-9.124636E-2,9.382744E-2,-2.4161583E-2,2.724105E-2,1.2466347E-1],"categories":[],"categories_nodes":[],"categories_segments":[],"categories_sizes":[],"default_left":[0,0,0,0,0,0,0,0,0,0,0,0,0,0,0,0,0,0,0,0,0,0,0,0,0,0,0,0,0,0,0,0,0,0,0,0,0,0,0,0,0,0,0,0,0,0,0,0,0,0,0,0,0,0,0,0,0,0,0,0,0,0,0,0,0,0,0,0,0,0,0,0,0,0,0,0,0,0,0,0,0,0,0,0,0,0,0],"id":9,"left_children":[1,3,5,7,9,11,13,15,17,19,21,23,25,27,29,31,-1,-1,33,35,37,39,41,43,45,47,-1,49,51,-1,-1,53,55,-1,-1,57,59,-1,61,63,65,67,69,71,73,-1,-1,75,77,79,81,83,85,-1,-1,-1,-1,-1,-1,-1,-1,-1,-1,-1,-1,-1,-1,-1,-1,-1,-1,-1,-1,-1,-1,-1,-1,-1,-1,-1,-1,-1,-1,-1,-1,-1,-1],"loss_changes":[4.6444815E2,4.0928513E1,3.985643E1,7.5476227E0,2.1852844E1,1.1215731E1,5.7723083E0,2.9230804E0,5.791605E0,7.723712E0,1.4308483E1,6.0409374E0,2.1726103E0,1.0892166E1,6.0577393E-3,1.3020172E0,0E0,0E0,2.3456621E-1,3.0415459E0,5.6722126E0,6.86187E0,8.314422E0,6.4387827E0,2.4235487E0,1.7129893E0,0E0,3.3802614E0,7.3952637E0,0E0,0E0,1.7999268E-1,4.7091446E0,0E0,0E0,4.180463E0,1.9434357E0,0E0,2.5311477E0,2.5818787E0,4.613153E0,3.0311708E0,5.5775166E0,7.1213675E-1,4.16708E0,0E0,0E0,2.6832885E-1,1.1149311E-1,3.4633117E0,1.6217793E0,6.710068E0,1.786171E0,0E0,0E0,0E0,0E0,0E0,0E0,0E0,0E0,0E0,0E0,0E0,0E0,0E0,0E0,0E0,0E0,0E0,0E0,0E0,0E0,0E0,0E0,0E0,0E0,0E0,0E0,0E0,0E0,0E0,0E0,0E0,0E0,0E0,0E0],"parents":[2147483647,0,0,1,1,2,2,3,3,4,4,5,5,6,6,7,7,8,8,9,9,10,10,11,11,12,12,13,13,14,14,15,15,18,18,19,19,20,20,21,21,22,22,23,23,24,24,25,25,27,27,28,28,31,31,32,32,35,35,36,36,38,38,39,39,40,40,41,41,42,42,43,43,44,44,47,47,48,48,49,49,50,50,51,51,52,52],"right_children":[2,4,6,8,10,12,14,16,18,20,22,24,26,28,30,32,-1,-1,34,36,38,40,42,44,46,48,-1,50,52,-1,-1,54,56,-1,-1,58,60,-1,62,64,66,68,70,72,74,-1,-1,76,78,80,82,84,86,-1,-1,-1,-1,-1,-1,-1,-1,-1,-1,-1,-1,-1,-1,-1,-1,-1,-1,-1,-1,-1,-1,-1,-1,-1,-1,-1,-1,-1,-1,-1,-1,-1,-1],"split_conditions":[6.69E-1,5.61E-1,7.097E-1,6.093E-1,3.655E-1,7.555E-1,5.67E-1,6.676E-1,3.926E-1,8.749E-1,5.371E-1,5.715E-1,5.533E-1,7.809E3,9.458E0,2.897E-1,2.9729104E-2,1.0508367E-1,3.633E-1,5.714E-1,6.308E-1,5.497E-1,8.495E-1,1.594E-1,3.333E-1,5E0,2.4054576E-2,7.601E3,2.775E-1,1.3310288E-1,4.5006443E-2,5.554E-1,1.875E-1,-8.379074E-2,-1.2813623E-2,4.672E-1,8.495E-1,-1.0237964E-1,4.749E-1,3.573E-1,1.1E1,4.286E-1,5.482E-1,4.299E-1,3.894E0,3.2148666E-3,1.4581428E-1,4.068E-1,1.324E-1,7.86E-1,3.959E-1,6.317E-1,2.053E0,-1.136202E-1,-4.2478915E-2,-1.1050345E-1,-4.889397E-2,-2.2436008E-3,1.2010431E-1,1.1459956E-1,-8.6453365E-4,-3.4888662E-2,6.850085E-2,-1.0235925E-1,-5.4745067E-2,-6.6942684E-2,2.8902764E-2,2.2353133E-2,1.4484283E-1,6.768125E-2,-8.1309885E-2,-1.00367524E-1,-4.8306803E-3,5.8978688E-2,-5.8817626E-3,-2.8665498E-2,2.2669911E-2,-3.0705506E-2,-1.164689E-1,6.0334828E-2,-8.116982E-2,2.6954576E-2,-9.124636E-2,9.382744E-2,-2.4161583E-2,2.724105E-2,1.2466347E-1],"split_indices":[2,2,2,5,4,4,1,1,4,0,1,5,1,3,8,5,0,0,9,10,2,5,0,1,10,6,0,3,5,0,0,2,1,0,0,1,0,0,1,9,7,10,4,5,8,0,0,5,1,4,4,4,8,0,0,0,0,0,0,0,0,0,0,0,0,0,0,0,0,0,0,0,0,0,0,0,0,0,0,0,0,0,0,0,0,0,0],"split_type":[0,0,0,0,0,0,0,0,0,0,0,0,0,0,0,0,0,0,0,0,0,0,0,0,0,0,0,0,0,0,0,0,0,0,0,0,0,0,0,0,0,0,0,0,0,0,0,0,0,0,0,0,0,0,0,0,0,0,0,0,0,0,0,0,0,0,0,0,0,0,0,0,0,0,0,0,0,0,0,0,0,0,0,0,0,0,0],"sum_hessian":[6.537732E2,3.6253964E2,2.9123352E2,2.206028E2,1.4193684E2,6.848451E1,2.2274901E2,2.149167E2,5.6861024E0,3.8206863E1,1.0372998E2,5.8256714E1,1.0227795E1,1.20275406E2,1.024736E2,2.1372731E2,1.1893866E0,2.419519E0,3.2665832E0,2.5256866E1,1.2949995E1,8.568028E1,1.80497E1,5.069353E1,7.5631833E0,8.459178E0,1.7686168E0,1.7622458E1,1.02652954E2,1.0117706E2,1.2965409E0,1.5322252E2,6.0504795E1,2.2392397E0,1.0273434E0,1.4055049E1,1.12018175E1,5.223901E0,7.7260947E0,6.7434906E1,1.8245382E1,8.117628E0,9.932071E0,3.9822764E0,4.6711254E1,1.4883394E0,6.074844E0,2.0894544E0,6.3697233E0,1.4044684E1,3.5777717E0,1.8741978E1,8.391097E1,1.513048E2,1.9177272E0,3.8711086E1,2.1793707E1,1.1367908E1,2.6871412E0,9.527089E0,1.6747277E0,3.4558969E0,4.270198E0,4.6978035E1,2.0456865E1,8.859512E0,9.38587E0,4.112721E0,4.004907E0,2.7490337E0,7.183037E0,2.8736823E0,1.1085943E0,3.2967598E1,1.3743657E1,1.034566E0,1.0548885E0,1.0633106E0,5.3064127E0,1.2947774E1,1.0969106E0,1.2058173E0,2.3719544E0,1.14200535E1,7.3219247E0,2.5817764E0,8.13292E1],"tree_param":{"num_deleted":"0","num_feature":"11","num_nodes":"87","size_leaf_vector":"1"}},{"base_weights":[-5.933172E-3,-7.5934404E-1,8.4095454E-1,-1.0052503E0,-3.5284105E-1,1.495797E-1,1.0566746E0,-1.0355638E0,8.7488614E-2,2.8979608E-1,-5.4569495E-1,-4.0517775E-3,1.0524824E0,6.896562E-1,1.1558782E0,-1.0448844E0,2.8054044E-2,1.00495934E-1,-6.7158085E-1,6.1501272E-2,1.2262149E-1,-7.6863354E-1,-2.5467312E-2,5.285087E-1,-3.1301397E-1,1.0416179E-2,1.1622236E0,2.4741413E-1,1.23840176E-1,1.2410291E0,8.1405157E-1,-1.0929441E0,-8.0088073E-1,-1.2715069E-2,-8.1738316E-2,-2.922108E-1,7.720878E-1,-9.184285E-1,-2.4461421E-1,6.038196E-1,-5.761635E-1,-2.2043614E-1,8.6657417E-1,1.7143612E-1,-7.1899635E-1,1.2513743E-1,2.5240704E-2,5.9200567E-1,-5.4751527E-2,1.2665596E0,8.119295E-1,1.0718096E0,1.6590487E-2,-1.11180566E-1,-6.666254E-2,-1.3776887E-3,-9.549466E-2,4.060785E-2,-7.447482E-2,1.3564593E-1,-7.4309534E-3,-8.111081E-3,-9.620218E-2,1.7905008E-2,-7.8388296E-2,1.7722929E-3,1.4850533E-1,-8.648188E-2,5.759698E-2,-8.281406E-2,3.796929E-2,-1.73129E-2,1.0072198E-1,4.956377E-2,-6.973308E-2,-8.371359E-2,4.2391617E-2,2.9770883E-3,1.1494738E-1,-2.3531383E-2,9.449395E-2,3.5591673E-2,1.2727535E-1,7.040985E-3,1.00686386E-1,-1.8485425E-2,1.1555338E-1,-6.337195E-2,9.340473E-2],"categories":[],"categories_nodes":[],"categories_segments":[],"categories_sizes":[],"default_left":[0,0,0,0,0,0,0,0,0,0,0,0,0,0,0,0,0,0,0,0,0,0,0,0,0,0,0,0,0,0,0,0,0,0,0,0,0,0,0,0,0,0,0,0,0,0,0,0,0,0,0,0,0,0,0,0,0,0,0,0,0,0,0,0,0,0,0,0,0,0,0,0,0,0,0,0,0,0,0,0,0,0,0,0,0,0,0,0,0],"id":10,"left_children":[1,3,5,7,9,11,13,15,17,19,21,23,25,27,29,31,-1,-1,33,35,-1,37,39,41,43,-1,45,47,-1,49,51,53,55,-1,-1,57,59,61,63,65,67,69,71,73,75,-1,-1,77,79,81,83,85,87,-1,-1,-1,-1,-1,-1,-1,-1,-1,-1,-1,-1,-1,-1,-1,-1,-1,-1,-1,-1,-1,-1,-1,-1,-1,-1,-1,-1,-1,-1,-1,-1,-1,-1,-1,-1],"loss_changes":[3.983719E2,3.267343E1,4.3682022E1,6.8920746E0,1.5783654E1,9.862596E0,7.35408E0,2.7448883E0,5.1768475E0,6.2856836E0,1.1267813E1,1.0322756E1,9.548235E-1,1.1855669E1,4.0764313E0,1.4544525E0,0E0,0E0,2.2445977E-1,6.5031223E0,0E0,5.120346E0,1.0823857E1,6.0236607E0,7.930377E0,0E0,4.277172E-1,3.0520744E0,0E0,4.8349E-1,7.7435513E0,5.714264E-1,4.4050407E0,0E0,0E0,5.8011003E0,4.342136E0,1.8416748E0,3.9102645E0,7.5125513E0,6.0298142E0,3.2180555E0,2.5249834E0,5.6705723E0,3.296895E0,0E0,0E0,4.238997E0,3.1766868E0,2.7160645E-1,1.4520035E0,3.2142334E0,6.700816E0,0E0,0E0,0E0,0E0,0E0,0E0,0E0,0E0,0E0,0E0,0E0,0E0,0E0,0E0,0E0,0E0,0E0,0E0,0E0,0E0,0E0,0E0,0E0,0E0,0E0,0E0,0E0,0E0,0E0,0E0,0E0,0E0,0E0,0E0,0E0,0E0],"parents":[2147483647,0,0,1,1,2,2,3,3,4,4,5,5,6,6,7,7,8,8,9,9,10,10,11,11,12,12,13,13,14,14,15,15,18,18,19,19,21,21,22,22,23,23,24,24,26,26,27,27,29,29,30,30,31,31,32,32,35,35,36,36,37,37,38,38,39,39,40,40,41,41,42,42,43,43,44,44,47,47,48,48,49,49,50,50,51,51,52,52],"right_children":[2,4,6,8,10,12,14,16,18,20,22,24,26,28,30,32,-1,-1,34,36,-1,38,40,42,44,-1,46,48,-1,50,52,54,56,-1,-1,58,60,62,64,66,68,70,72,74,76,-1,-1,78,80,82,84,86,88,-1,-1,-1,-1,-1,-1,-1,-1,-1,-1,-1,-1,-1,-1,-1,-1,-1,-1,-1,-1,-1,-1,-1,-1,-1,-1,-1,-1,-1,-1,-1,-1,-1,-1,-1,-1],"split_conditions":[6.621E-1,5.61E-1,7.04E-1,6.093E-1,3.439E-1,6.085E-1,7.933E3,6.676E-1,3.926E-1,5.857E-1,4.749E-1,3.926E-1,2.22E0,6.974E-1,8.972E-1,3.571E-1,2.8054044E-2,1.00495934E-1,6.388E-1,4.672E-1,1.2262149E-1,5.497E-1,8.495E-1,3.333E-1,8.256E-1,1.0416179E-2,9.083E3,4.882E-1,1.23840176E-1,8.684E-1,6.977E-1,5.469E-1,3.563E-1,-1.2715069E-2,-8.1738316E-2,7.898E-1,3.431E0,7.208E-1,6.505E-1,3.928E-1,4.384E-1,4.85E-1,1.594E-1,7.615E-1,6.027E-1,1.2513743E-1,2.5240704E-2,4.834E-1,5.64E0,5.75E-2,2.469E0,1.116E-1,5.67E-1,-1.11180566E-1,-6.666254E-2,-1.3776887E-3,-9.549466E-2,4.060785E-2,-7.447482E-2,1.3564593E-1,-7.4309534E-3,-8.111081E-3,-9.620218E-2,1.7905008E-2,-7.8388296E-2,1.7722929E-3,1.4850533E-1,-8.648188E-2,5.759698E-2,-8.281406E-2,3.796929E-2,-1.73129E-2,1.0072198E-1,4.956377E-2,-6.973308E-2,-8.371359E-2,4.2391617E-2,2.9770883E-3,1.1494738E-1,-2.3531383E-2,9.449395E-2,3.5591673E-2,1.2727535E-1,7.040985E-3,1.00686386E-1,-1.8485425E-2,1.1555338E-1,-6.337195E-2,9.340473E-2],"split_indices":[2,2,2,5,4,1,3,1,4,5,1,4,8,1,0,5,0,0,5,1,0,5,0,5,0,0,3,4,0,4,4,1,4,0,0,0,8,0,4,5,9,1,1,4,5,0,0,5,8,1,8,5,1,0,0,0,0,0,0,0,0,0,0,0,0,0,0,0,0,0,0,0,0,0,0,0,0,0,0,0,0,0,0,0,0,0,0,0,0],"split_type":[0,0,0,0,0,0,0,0,0,0,0,0,0,0,0,0,0,0,0,0,0,0,0,0,0,0,0,0,0,0,0,0,0,0,0,0,0,0,0,0,0,0,0,0,0,0,0,0,0,0,0,0,0,0,0,0,0,0,0,0,0,0,0,0,0,0,0,0,0,0,0,0,0,0,0,0,0,0,0,0,0,0,0,0,0,0,0,0,0],"sum_hessian":[6.2235333E2,3.2940787E2,2.929455E2,2.0432962E2,1.2507824E2,7.0069336E1,2.2287614E2,1.9886526E2,5.4643607E0,2.8755402E1,9.632284E1,6.073125E1,9.338084E0,4.9115993E1,1.7376015E2,1.9767143E2,1.1938326E0,2.327376E0,3.1369848E0,2.3975868E1,4.7795343E0,6.709319E1,2.9229645E1,2.2036379E1,3.8694874E1,1.1707019E0,8.167382E0,2.8000698E1,2.1115295E1,1.3700168E2,3.6758484E1,1.6223743E2,3.5433994E1,1.0580966E0,2.0788882E0,1.6400759E1,7.575109E0,5.1592434E1,1.5500759E1,1.3596407E1,1.5633238E1,6.9616337E0,1.5074745E1,1.7905886E1,2.0788986E1,7.0965896E0,1.0707926E0,1.2633812E1,1.5366885E1,1.27466064E2,9.5356045E0,2.7519508E1,9.238975E0,1.5382393E2,8.4135065E0,5.9787426E0,2.9455252E1,6.4896092E0,9.91115E0,4.1246986E0,3.4504104E0,2.6946964E0,4.8897736E1,9.054932E0,6.4458265E0,8.778234E0,4.8181734E0,1.2700606E1,2.9326313E0,3.2702084E0,3.6914256E0,1.7687261E0,1.330602E1,1.335255E1,4.5533366E0,1.9083881E1,1.7051041E0,6.814474E0,5.8193383E0,1.3663605E1,1.703281E0,1.256079E0,1.2620999E2,2.268302E0,7.2673025E0,1.6434919E0,2.5876015E1,5.5876284E0,3.6513467E0],"tree_param":{"num_deleted":"0","num_feature":"11","num_nodes":"89","size_leaf_vector":"1"}},{"base_weights":[-4.9810475E-3,-7.296208E-1,7.9517275E-1,-9.8614776E-1,-3.339533E-1,1.9247544E-1,1.0288413E0,-1.0175387E0,1.4086086E-1,-9.98013E-2,-8.1450117E-1,3.318161E-1,-6.0978585E-1,8.52241E-1,1.2196972E0,-1.0308484E0,4.1962292E-2,9.634794E-2,-6.0698193E-1,2.0657098E-1,-5.4061234E-1,-9.3026936E-1,3.0098033E-1,2.1671145E-1,9.871267E-1,-7.7033657E-1,2.3000903E-2,3.508566E-1,1.0401107E0,9.006328E-1,1.2739429E-1,-4.7038123E-1,-1.0483348E0,7.1892485E-2,-6.438504E-2,-1.0478085E-2,-7.5737946E-2,-6.3910866E-1,4.278195E-1,-6.329896E-1,8.508494E-2,-1.0108039E0,1.0212673E-1,8.645249E-2,-2.519827E-1,7.0868455E-2,9.5093024E-1,-2.5317183E-2,1.1918665E0,-8.130599E-2,-9.5503354E-1,7.184886E-1,-1.6130144E-2,-2.0640239E-1,1.1023542E0,-2.8193483E-1,1.089586E0,-8.227933E-2,8.372599E-2,-1.077075E-1,-6.782076E-2,-9.412108E-2,1.0793208E-2,1.8885402E-2,9.4123736E-2,-1.8934334E-3,-7.965721E-2,-2.0511886E-2,-1.0849555E-1,-8.119606E-2,1.1420158E-1,-8.239978E-2,4.3979984E-2,-3.886635E-2,2.7315289E-2,5.984062E-3,1.0610246E-1,1.3439536E-1,3.7338303E-3,-6.512063E-2,4.5048688E-2,-3.804284E-2,-1.1293463E-1,3.429028E-2,1.1157067E-1,6.99094E-2,-4.428494E-2,5.5233326E-2,-6.644114E-2,1.21985234E-1,6.3534625E-2,2.3489593E-2,-6.7136355E-2,1.9738918E-2,1.1703414E-1],"categories":[],"categories_nodes":[],"categories_segments":[],"categories_sizes":[],"default_left":[0,0,0,0,0,0,0,0,0,0,0,0,0,0,0,0,0,0,0,0,0,0,0,0,0,0,0,0,0,0,0,0,0,0,0,0,0,0,0,0,0,0,0,0,0,0,0,0,0,0,0,0,0,0,0,0,0,0,0,0,0,0,0,0,0,0,0,0,0,0,0,0,0,0,0,0,0,0,0,0,0,0,0,0,0,0,0,0,0,0,0,0,0,0,0],"id":11,"left_children":[1,3,5,7,9,11,13,15,17,19,21,23,25,27,29,31,33,-1,35,37,39,41,43,45,47,49,-1,51,53,55,-1,57,59,-1,-1,-1,-1,61,63,65,-1,67,69,-1,71,73,75,-1,77,79,81,83,85,87,89,91,93,-1,-1,-1,-1,-1,-1,-1,-1,-1,-1,-1,-1,-1,-1,-1,-1,-1,-1,-1,-1,-1,-1,-1,-1,-1,-1,-1,-1,-1,-1,-1,-1,-1,-1,-1,-1,-1,-1],"loss_changes":[3.436213E2,3.1235611E1,3.9466248E1,6.79982E0,1.3852454E1,9.136105E0,5.793442E0,2.6264038E0,4.2618666E0,1.1510292E1,5.501089E0,4.970979E0,1.8192439E0,9.866066E0,4.9884033E-1,1.2802277E0,1.9640847E0,0E0,2.0345128E-1,9.7254925E0,5.022566E0,3.1690254E0,1.6379044E0,6.330667E0,2.838254E0,1.2527528E0,0E0,4.209392E0,6.318199E0,4.157954E0,0E0,4.0476246E0,1.1274261E0,0E0,0E0,0E0,0E0,2.5562806E0,4.808406E0,3.3284378E0,0E0,1.826458E0,4.326914E0,0E0,1.5789737E0,4.8403025E0,9.000025E-1,0E0,1.4859781E0,1.2943773E0,3.8678932E-1,1.9396124E0,5.360285E0,1.9570783E0,3.336296E0,7.9544866E-1,8.5438156E-1,0E0,0E0,0E0,0E0,0E0,0E0,0E0,0E0,0E0,0E0,0E0,0E0,0E0,0E0,0E0,0E0,0E0,0E0,0E0,0E0,0E0,0E0,0E0,0E0,0E0,0E0,0E0,0E0,0E0,0E0,0E0,0E0,0E0,0E0,0E0,0E0,0E0,0E0],"parents":[2147483647,0,0,1,1,2,2,3,3,4,4,5,5,6,6,7,7,8,8,9,9,10,10,11,11,12,12,13,13,14,14,15,15,16,16,18,18,19,19,20,20,21,21,22,22,23,23,24,24,25,25,27,27,28,28,29,29,31,31,32,32,37,37,38,38,39,39,41,41,42,42,44,44,45,45,46,46,48,48,49,49,50,50,51,51,52,52,53,53,54,54,55,55,56,56],"right_children":[2,4,6,8,10,12,14,16,18,20,22,24,26,28,30,32,34,-1,36,38,40,42,44,46,48,50,-1,52,54,56,-1,58,60,-1,-1,-1,-1,62,64,66,-1,68,70,-1,72,74,76,-1,78,80,82,84,86,88,90,92,94,-1,-1,-1,-1,-1,-1,-1,-1,-1,-1,-1,-1,-1,-1,-1,-1,-1,-1,-1,-1,-1,-1,-1,-1,-1,-1,-1,-1,-1,-1,-1,-1,-1,-1,-1,-1,-1,-1],"split_conditions":[6.621E-1,5.584E-1,7.097E-1,6.093E-1,6.673E-1,7.615E-1,5.614E-1,6.42E-1,3.926E-1,8.526E-1,6.085E-1,5.756E-1,5.533E-1,8.754E3,7.469E-1,1.534E-1,8.777E-1,9.634794E-2,5.333E-1,1.377E-1,6.462E-1,6.533E-1,8.324E-1,6.085E-1,3.056E-1,9E0,2.3000903E-2,8.067E-1,1.618E-1,2.118E-1,1.2739429E-1,7.487E3,4.587E-1,7.1892485E-2,-6.438504E-2,-1.0478085E-2,-7.5737946E-2,5.916E-1,4.724E-1,2.601E-1,8.508494E-2,5.649E3,6.356E-1,8.645249E-2,2.693E-1,7.742E3,2.22E0,-2.5317183E-2,4.754E-1,2.347E0,3.587E-1,7.809E3,4.634E-1,9.952E3,7.449E-1,1.618E-1,8.95E-2,-8.227933E-2,8.372599E-2,-1.077075E-1,-6.782076E-2,-9.412108E-2,1.0793208E-2,1.8885402E-2,9.4123736E-2,-1.8934334E-3,-7.965721E-2,-2.0511886E-2,-1.0849555E-1,-8.119606E-2,1.1420158E-1,-8.239978E-2,4.3979984E-2,-3.886635E-2,2.7315289E-2,5.984062E-3,1.0610246E-1,1.3439536E-1,3.7338303E-3,-6.512063E-2,4.5048688E-2,-3.804284E-2,-1.1293463E-1,3.429028E-2,1.1157067E-1,6.99094E-2,-4.428494E-2,5.5233326E-2,-6.644114E-2,1.21985234E-1,6.3534625E-2,2.3489593E-2,-6.7136355E-2,1.9738918E-2,1.1703414E-1],"split_indices":[2,2,2,5,4,4,1,1,4,0,1,5,1,3,2,4,0,0,10,1,1,5,0,1,10,7,0,0,5,5,0,3,5,0,0,0,0,5,1,4,0,3,2,0,9,3,8,0,9,8,1,3,4,3,4,5,9,0,0,0,0,0,0,0,0,0,0,0,0,0,0,0,0,0,0,0,0,0,0,0,0,0,0,0,0,0,0,0,0,0,0,0,0,0,0],"split_type":[0,0,0,0,0,0,0,0,0,0,0,0,0,0,0,0,0,0,0,0,0,0,0,0,0,0,0,0,0,0,0,0,0,0,0,0,0,0,0,0,0,0,0,0,0,0,0,0,0,0,0,0,0,0,0,0,0,0,0,0,0,0,0,0,0,0,0,0,0,0,0,0,0,0,0,0,0,0,0,0,0,0,0,0,0,0,0,0,0,0,0,0,0,0,0],"sum_hessian":[5.906305E2,3.0998672E2,2.8064377E2,1.8715463E2,1.228321E2,7.891732E1,2.0172646E2,1.8217752E2,4.977106E0,8.340152E1,3.9430584E1,6.773855E1,1.1178765E1,1.0761498E2,9.411147E1,1.7994405E2,2.233477E0,2.2327557E0,2.7443504E0,4.951737E1,3.3884155E1,3.587355E1,3.5570319E0,5.8749893E1,8.98866E0,9.454061E0,1.7247044E0,3.011418E1,7.75008E1,1.62332E1,7.787827E1,6.2884655E0,1.7365558E2,1.0996933E0,1.1337838E0,1.0234804E0,1.7208701E0,9.876751E0,3.9640617E1,3.228583E1,1.5983219E0,3.329705E1,2.5765018E0,1.48261E0,2.074422E0,4.9928722E1,8.821168E0,1.2400398E0,7.7486205E0,2.302937E0,7.151124E0,1.4565382E1,1.5548798E1,3.5757296E0,7.392507E1,2.16864E0,1.4064559E1,5.2455573E0,1.0429085E0,1.5937054E2,1.4285024E1,6.847652E0,3.0290985E0,2.7983704E1,1.1656913E1,7.026298E0,2.5259533E1,3.1236448E0,3.0173405E1,1.4878402E0,1.0886616E0,1.0308877E0,1.0435342E0,1.49791155E1,3.4949608E1,1.1397463E0,7.6814218E0,6.7017245E0,1.0468957E0,1.0032486E0,1.2996883E0,2.405168E0,4.745956E0,8.444256E0,6.121126E0,5.571727E0,9.977071E0,1.2684604E0,2.3072693E0,5.777656E1,1.6148512E1,1.1024033E0,1.0662366E0,1.4532391E0,1.26113205E1],"tree_param":{"num_deleted":"0","num_feature":"11","num_nodes":"95","size_leaf_vector":"1"}},{"base_weights":[-4.4780276E-3,-7.84491E-1,6.711944E-1,-1.0117948E0,-4.7093856E-1,8.281988E-2,9.608109E-1,-1.0321887E0,1.4458923E-1,-5.5493695E-1,7.940951E-1,5.1164037E-1,-1.4987719E-1,6.0532737E-1,1.0669291E0,-1.0613629E0,-7.01477E-1,7.830312E-2,-6.299938E-2,-7.167058E-3,-7.385241E-1,-2.9905727E-2,1.18693866E-1,2.951737E-2,7.8489995E-1,2.6406205E-1,-5.021644E-1,1.9512269E-1,1.1603975E0,1.1605221E0,7.0961994E-1,-3.389415E-2,-1.0680451E-1,3.9574122E-1,-9.595818E-1,-2.649922E-1,1.1595174E-1,-4.4391684E-2,-8.337762E-1,-4.8348936E-1,8.60496E-1,1.4194627E-1,9.883723E-1,-6.3951653E-1,5.839106E-1,-6.2071544E-1,8.3687276E-2,-6.403405E-1,2.997756E-1,4.671276E-2,1.20327525E-1,1.1886526E0,7.2343963E-1,1.159207E0,2.417061E-1,-3.5433706E-2,9.263533E-2,-1.0472661E-2,-1.0287298E-1,1.2943763E-1,-3.970011E-2,-5.4549266E-2,5.8714718E-2,-6.128937E-2,-1.0895741E-1,1.2883338E-2,-9.617043E-2,9.426112E-3,1.031576E-1,1.14974774E-1,-5.1340807E-2,1.07882164E-1,-1.8416202E-2,-9.6762225E-2,5.1426478E-2,-5.5101097E-2,8.829682E-2,-6.941434E-2,6.466891E-2,-9.134292E-2,-1.044752E-3,-5.0688565E-2,4.402123E-2,2.961031E-2,1.1955529E-1,3.9508558E-4,9.2632405E-2,1.2067743E-1,2.5104452E-2,-7.174995E-3,9.409709E-2],"categories":[],"categories_nodes":[],"categories_segments":[],"categories_sizes":[],"default_left":[0,0,0,0,0,0,0,0,0,0,0,0,0,0,0,0,0,0,0,0,0,0,0,0,0,0,0,0,0,0,0,0,0,0,0,0,0,0,0,0,0,0,0,0,0,0,0,0,0,0,0,0,0,0,0,0,0,0,0,0,0,0,0,0,0,0,0,0,0,0,0,0,0,0,0,0,0,0,0,0,0,0,0,0,0,0,0,0,0,0,0],"id":12,"left_children":[1,3,5,7,9,11,13,15,17,19,21,23,25,27,29,31,33,-1,-1,35,37,-1,-1,39,41,43,45,47,49,51,53,-1,-1,55,57,59,-1,61,63,65,67,69,71,73,75,77,-1,79,81,-1,-1,83,85,87,89,-1,-1,-1,-1,-1,-1,-1,-1,-1,-1,-1,-1,-1,-1,-1,-1,-1,-1,-1,-1,-1,-1,-1,-1,-1,-1,-1,-1,-1,-1,-1,-1,-1,-1,-1,-1],"loss_changes":[2.972485E2,1.8181412E1,5.1419373E1,3.7078247E0,1.2330242E1,1.0133539E1,6.990616E0,6.8730164E-1,2.2202797E0,1.0605385E1,3.5234818E0,4.6773424E0,9.772549E0,1.0896147E1,4.346039E0,2.86911E-1,4.6218987E0,0E0,0E0,8.578003E0,5.1873627E0,0E0,0E0,6.3611565E0,2.8337116E0,9.346804E0,6.2433243E0,2.753086E0,4.8984528E-2,6.2687683E-1,7.011297E0,0E0,0E0,1.7453914E0,6.2635994E-1,5.3170233E0,0E0,3.671918E0,3.2548447E0,2.8362925E0,6.4773035E-1,4.9708295E0,2.0122738E0,3.7511997E0,8.447077E0,3.5849876E0,0E0,6.06218E-1,3.2492676E0,0E0,0E0,3.361206E-1,1.4366703E0,4.4926834E-1,4.067179E0,0E0,0E0,0E0,0E0,0E0,0E0,0E0,0E0,0E0,0E0,0E0,0E0,0E0,0E0,0E0,0E0,0E0,0E0,0E0,0E0,0E0,0E0,0E0,0E0,0E0,0E0,0E0,0E0,0E0,0E0,0E0,0E0,0E0,0E0,0E0,0E0],"parents":[2147483647,0,0,1,1,2,2,3,3,4,4,5,5,6,6,7,7,8,8,9,9,10,10,11,11,12,12,13,13,14,14,15,15,16,16,19,19,20,20,23,23,24,24,25,25,26,26,27,27,28,28,29,29,30,30,33,33,34,34,35,35,37,37,38,38,39,39,40,40,41,41,42,42,43,43,44,44,45,45,47,47,48,48,51,51,52,52,53,53,54,54],"right_children":[2,4,6,8,10,12,14,16,18,20,22,24,26,28,30,32,34,-1,-1,36,38,-1,-1,40,42,44,46,48,50,52,54,-1,-1,56,58,60,-1,62,64,66,68,70,72,74,76,78,-1,80,82,-1,-1,84,86,88,90,-1,-1,-1,-1,-1,-1,-1,-1,-1,-1,-1,-1,-1,-1,-1,-1,-1,-1,-1,-1,-1,-1,-1,-1,-1,-1,-1,-1,-1,-1,-1,-1,-1,-1,-1,-1],"split_conditions":[6.405E-1,5.267E-1,7.04E-1,6.388E-1,6.129E-1,3.926E-1,7.989E3,5.012E-1,3.752E-1,3.696E-1,1E1,3.348E-1,8.256E-1,6.974E-1,8.972E-1,7.065E-1,8.304E-1,7.830312E-2,-6.299938E-2,5.857E-1,7.485E-1,-2.9905727E-2,1.18693866E-1,5.5E-1,2.567E-1,2.952E-1,7.085E-1,2.401E-1,7E0,8.684E-1,5.713E-1,-3.389415E-2,-1.0680451E-1,2.011E-1,2.198E-1,4.826E3,1.1595174E-1,3.371E-1,6.564E-1,2.696E-1,6.822E3,7E0,6.467E0,5.916E-1,1.552E-1,6.533E-1,8.3687276E-2,2.693E-1,3.848E-1,4.671276E-2,1.20327525E-1,5.75E-2,2.469E0,9.88E-1,5.67E-1,-3.5433706E-2,9.263533E-2,-1.0472661E-2,-1.0287298E-1,1.2943763E-1,-3.970011E-2,-5.4549266E-2,5.8714718E-2,-6.128937E-2,-1.0895741E-1,1.2883338E-2,-9.617043E-2,9.426112E-3,1.031576E-1,1.14974774E-1,-5.1340807E-2,1.07882164E-1,-1.8416202E-2,-9.6762225E-2,5.1426478E-2,-5.5101097E-2,8.829682E-2,-6.941434E-2,6.466891E-2,-9.134292E-2,-1.044752E-3,-5.0688565E-2,4.402123E-2,2.961031E-2,1.1955529E-1,3.9508558E-4,9.2632405E-2,1.2067743E-1,2.5104452E-2,-7.174995E-3,9.409709E-2],"split_indices":[2,2,2,5,1,4,3,1,4,4,7,5,0,1,0,0,0,0,0,5,0,0,0,1,1,1,1,5,7,4,4,0,0,9,4,3,0,1,4,4,3,6,8,5,9,5,0,9,1,0,0,1,8,0,1,0,0,0,0,0,0,0,0,0,0,0,0,0,0,0,0,0,0,0,0,0,0,0,0,0,0,0,0,0,0,0,0,0,0,0,0],"split_type":[0,0,0,0,0,0,0,0,0,0,0,0,0,0,0,0,0,0,0,0,0,0,0,0,0,0,0,0,0,0,0,0,0,0,0,0,0,0,0,0,0,0,0,0,0,0,0,0,0,0,0,0,0,0,0,0,0,0,0,0,0,0,0,0,0,0,0,0,0,0,0,0,0,0,0,0,0,0,0,0,0,0,0,0,0,0,0,0,0,0,0],"sum_hessian":[5.620043E2,2.6078574E2,3.0121854E2,1.4989519E2,1.10890526E2,9.978497E1,2.0143358E2,1.4740302E2,2.4921796E0,1.0451223E2,6.378295E0,3.4678936E1,6.510603E1,4.784908E1,1.535845E2,1.3342352E2,1.3979497E1,1.3601685E0,1.1320113E0,2.6495758E1,7.801647E1,1.7493039E0,4.6289907E0,1.2945928E1,2.173301E1,3.0048882E1,3.505715E1,2.8292242E1,1.9556837E1,1.1992389E2,3.3660614E1,1.6968725E0,1.3172664E2,2.5606732E0,1.1418824E1,2.2333216E1,4.1625414E0,9.590859E0,6.842561E1,8.262946E0,4.6829815E0,5.6324883E0,1.6100521E1,7.5945864E0,2.2454296E1,3.269864E1,2.3585122E0,2.579658E0,2.5712584E1,1.8319095E0,1.7724928E1,1.1105679E2,8.867095E0,1.6413034E1,1.7247578E1,1.1985718E0,1.3621014E0,1.0427057E0,1.0376119E1,1.0558351E0,2.1277382E1,5.423654E0,4.1672053E0,3.8541176E1,2.988444E1,3.9437847E0,4.3191614E0,1.1378307E0,3.545151E0,1.9221785E0,3.7103097E0,1.5021671E1,1.0788494E0,6.0386863E0,1.5558999E0,4.5071607E0,1.7947134E1,3.1335505E1,1.3631335E0,1.4854921E0,1.0941658E0,3.425772E0,2.2286812E1,1.1888604E0,1.0986793E2,2.1746404E0,6.6924543E0,1.5283706E1,1.1293294E0,1.2528763E1,4.718816E0],"tree_param":{"num_deleted":"0","num_feature":"11","num_nodes":"91","size_leaf_vector":"1"}},{"base_weights":[-3.4001886E-3,-7.567033E-1,6.336934E-1,-1.0504081E0,-4.9977458E-1,1.1592499E-1,9.382488E-1,-1.0577678E-1,-1.2691507E-2,-6.003554E-1,4.6724883E-1,2.4266258E-1,-5.5357474E-1,7.5696975E-1,1.1426166E0,4.2236704E-2,-7.755031E-1,8.810737E-1,-2.8084227E-1,-6.7994016E-1,3.3171174E-1,-6.739318E-1,6.810888E-2,2.825746E-1,9.495161E-1,8.103007E-1,1.2021097E-1,-1.6963233E-1,1.0762371E-1,-6.771542E-2,-8.533071E-1,1.2590013E0,2.2418903E-1,-9.2816465E-2,6.838178E-2,-9.1021156E-1,3.5349343E-2,2.2030984E-1,9.760717E-1,-7.890929E-1,3.7618052E-2,6.3746315E-1,-6.1954107E-2,-2.3920743E-1,1.0147152E0,-3.003247E-1,9.9974734E-1,1.5692485E-2,-7.97798E-2,-7.150993E-2,4.1616056E-2,-9.112424E-2,-1.042142E-3,2.9178048E-2,1.4554764E-1,-6.145813E-2,6.547655E-2,-2.259667E-2,-1.00039355E-1,1.2769887E-2,1.0370882E-1,8.702572E-3,1.2099152E-1,9.774279E-3,-8.839559E-2,2.6521636E-2,1.0686582E-1,6.165115E-2,-4.5313984E-2,4.9640946E-2,-6.629977E-2,1.1434306E-1,5.3793486E-2,2.0456579E-2,-6.575294E-2,1.13505974E-1,3.183669E-2],"categories":[],"categories_nodes":[],"categories_segments":[],"categories_sizes":[],"default_left":[0,0,0,0,0,0,0,0,0,0,0,0,0,0,0,0,0,0,0,0,0,0,0,0,0,0,0,0,0,0,0,0,0,0,0,0,0,0,0,0,0,0,0,0,0,0,0,0,0,0,0,0,0,0,0,0,0,0,0,0,0,0,0,0,0,0,0,0,0,0,0,0,0,0,0,0,0],"id":13,"left_children":[1,3,5,7,9,11,13,-1,-1,15,17,19,21,23,25,27,29,31,33,35,37,39,-1,41,43,45,-1,47,-1,49,51,53,55,-1,-1,57,-1,59,61,63,-1,65,67,69,71,73,75,-1,-1,-1,-1,-1,-1,-1,-1,-1,-1,-1,-1,-1,-1,-1,-1,-1,-1,-1,-1,-1,-1,-1,-1,-1,-1,-1,-1,-1,-1],"loss_changes":[2.5703503E2,1.7993454E1,4.5648125E1,6.37825E-1,1.3197594E1,9.349866E0,5.89859E0,0E0,0E0,1.3620762E1,4.294893E0,7.7853556E0,3.0731988E0,8.839432E0,6.837616E-1,6.055238E0,5.1695213E0,1.8674703E0,4.0158935E0,2.3272529E0,5.8570166E0,2.2961073E0,0E0,3.7332249E0,5.706703E0,3.6247606E0,0E0,4.866224E0,0E0,3.5827727E0,4.1625824E0,5.7873917E-1,1.9839604E0,0E0,0E0,2.1647882E-1,0E0,5.4206343E0,2.426322E0,1.3669224E0,0E0,2.1193829E0,4.5895762E0,1.7241662E0,3.4981384E0,6.884431E-1,9.044485E-1,0E0,0E0,0E0,0E0,0E0,0E0,0E0,0E0,0E0,0E0,0E0,0E0,0E0,0E0,0E0,0E0,0E0,0E0,0E0,0E0,0E0,0E0,0E0,0E0,0E0,0E0,0E0,0E0,0E0,0E0],"parents":[2147483647,0,0,1,1,2,2,3,3,4,4,5,5,6,6,9,9,10,10,11,11,12,12,13,13,14,14,15,15,16,16,17,17,18,18,19,19,20,20,21,21,23,23,24,24,25,25,27,27,29,29,30,30,31,31,32,32,35,35,37,37,38,38,39,39,41,41,42,42,43,43,44,44,45,45,46,46],"right_children":[2,4,6,8,10,12,14,-1,-1,16,18,20,22,24,26,28,30,32,34,36,38,40,-1,42,44,46,-1,48,-1,50,52,54,56,-1,-1,58,-1,60,62,64,-1,66,68,70,72,74,76,-1,-1,-1,-1,-1,-1,-1,-1,-1,-1,-1,-1,-1,-1,-1,-1,-1,-1,-1,-1,-1,-1,-1,-1,-1,-1,-1,-1,-1,-1],"split_conditions":[6.405E-1,4.846E-1,7.097E-1,6.319E-1,5.644E-1,7.615E-1,5.614E-1,-1.0577678E-1,-1.2691507E-2,3.351E-1,8.72E-1,1.377E-1,6.319E-1,8.754E3,7.469E-1,5.857E-1,7.408E-1,6.936E-1,7.371E3,6.183E-1,5.756E-1,6.085E-1,6.810888E-2,8.067E-1,1.618E-1,2.118E-1,1.2021097E-1,8.749E-1,1.0762371E-1,3.998E-1,6.455E-1,7.878E-1,5.971E-1,-9.2816465E-2,6.838178E-2,9E0,3.5349343E-2,6.624E-1,1.179E-1,5.989E3,3.7618052E-2,7.788E-1,4.634E-1,9.952E3,7.449E-1,1.618E-1,4.568E0,1.5692485E-2,-7.97798E-2,-7.150993E-2,4.1616056E-2,-9.112424E-2,-1.042142E-3,2.9178048E-2,1.4554764E-1,-6.145813E-2,6.547655E-2,-2.259667E-2,-1.00039355E-1,1.2769887E-2,1.0370882E-1,8.702572E-3,1.2099152E-1,9.774279E-3,-8.839559E-2,2.6521636E-2,1.0686582E-1,6.165115E-2,-4.5313984E-2,4.9640946E-2,-6.629977E-2,1.1434306E-1,5.3793486E-2,2.0456579E-2,-6.575294E-2,1.13505974E-1,3.183669E-2],"split_indices":[2,2,2,5,1,4,1,0,0,4,0,1,5,3,2,5,0,4,3,5,5,1,0,0,5,5,0,0,0,5,5,0,1,0,0,7,0,1,9,3,0,0,4,3,4,5,8,0,0,0,0,0,0,0,0,0,0,0,0,0,0,0,0,0,0,0,0,0,0,0,0,0,0,0,0,0,0],"split_type":[0,0,0,0,0,0,0,0,0,0,0,0,0,0,0,0,0,0,0,0,0,0,0,0,0,0,0,0,0,0,0,0,0,0,0,0,0,0,0,0,0,0,0,0,0,0,0,0,0,0,0,0,0,0,0,0,0,0,0,0,0,0,0,0,0,0,0,0,0,0,0,0,0,0,0,0,0],"sum_hessian":[5.3357465E2,2.4440318E2,2.8917148E2,1.12598885E2,1.3180429E2,1.0760873E2,1.8156276E2,1.115644E2,1.034489E0,1.1973023E2,1.207406E1,9.101664E1,1.6592081E1,9.870926E1,8.28535E1,2.5806965E1,9.392326E1,7.659344E0,4.4147162E0,7.4275203E0,8.358912E1,1.5532139E1,1.0599413E0,2.9209803E1,6.949946E1,1.4800593E1,6.80529E1,2.2112093E1,3.6948721E0,9.487279E0,8.443599E1,4.2801867E0,3.3791578E0,2.6645424E0,1.7501738E0,6.1715918E0,1.2559288E0,7.24119E1,1.1177222E1,1.4221134E1,1.3110049E0,1.3969745E1,1.5240058E1,3.474932E0,6.602452E1,2.071458E0,1.27291355E1,1.5042374E1,7.0697184E0,3.8536177E0,5.633661E0,7.89297E1,5.506287E0,1.1422278E0,3.1379588E0,1.0012875E0,2.37787E0,1.1269168E0,5.044675E0,6.607616E1,6.335746E0,2.6134272E0,8.563795E0,1.3712763E0,1.2849858E1,8.364136E0,5.6056094E0,5.3628383E0,9.877219E0,1.2075336E0,2.2673984E0,5.0888134E1,1.5136388E1,1.0353535E0,1.0361047E0,1.0064623E1,2.6645126E0],"tree_param":{"num_deleted":"0","num_feature":"11","num_nodes":"77","size_leaf_vector":"1"}},{"base_weights":[-2.3838386E-3,-5.118428E-1,8.5415596E-1,-8.3776164E-1,-4.7263164E-2,6.505801E-1,1.0888313E0,-5.894715E-1,-1.0483167E0,-5.4373026E-1,1.019375E-1,9.057481E-1,4.0077248E-1,1.1338115E0,7.5499636E-1,1.735866E-2,-8.3447754E-1,-1.0626782E0,-4.0869015E-1,-8.0558157E-1,4.684094E-1,2.1217103E-1,-6.622569E-1,3.9820707E-1,1.0945317E0,7.018273E-1,2.4360968E-2,1.1527925E0,4.378655E-1,-2.3643637E-1,1.0235615E0,-8.6239034E-1,4.329754E-1,-8.9239085E-1,7.101441E-2,-3.365461E-2,-1.07193865E-1,-6.9118604E-2,1.4844569E-2,6.42825E-2,-9.0308744E-1,9.171725E-2,-2.3588797E-1,-9.6361056E-2,4.5789456E-1,-8.494637E-1,4.5180168E-2,-6.6044174E-2,5.5597764E-1,2.455267E-1,1.1467735E0,8.886989E-1,-3.321987E-1,-8.876493E-1,2.3956436E-1,3.2065198E-2,1.1635704E-1,-2.0465659E-2,7.824514E-2,6.468173E-2,-9.004425E-2,1.8919086E-2,1.0927826E-1,-9.587776E-2,-5.8920905E-3,9.361368E-2,5.1418096E-3,-1.0737622E-1,-5.594759E-2,-9.576369E-2,-2.5169957E-2,5.546096E-2,-7.77234E-2,-3.521611E-2,6.569816E-2,6.410322E-2,2.3643628E-3,-2.1669893E-2,-9.686976E-2,1.0744521E-2,1.1447529E-1,-3.5059046E-2,6.96678E-2,1.22071706E-1,6.842025E-2,-1.5447822E-2,9.932032E-2,-7.3974565E-2,6.520754E-2,-2.1665268E-2,-1.3923839E-1,3.733277E-2,-6.4998165E-2],"categories":[],"categories_nodes":[],"categories_segments":[],"categories_sizes":[],"default_left":[0,0,0,0,0,0,0,0,0,0,0,0,0,0,0,0,0,0,0,0,0,0,0,0,0,0,0,0,0,0,0,0,0,0,0,0,0,0,0,0,0,0,0,0,0,0,0,0,0,0,0,0,0,0,0,0,0,0,0,0,0,0,0,0,0,0,0,0,0,0,0,0,0,0,0,0,0,0,0,0,0,0,0,0,0,0,0,0,0,0,0,0,0],"id":14,"left_children":[1,3,5,7,9,11,13,15,17,19,21,23,25,27,29,31,33,35,37,39,41,43,45,47,49,51,53,55,57,59,61,63,65,67,-1,-1,-1,-1,-1,-1,69,-1,71,73,75,77,-1,-1,79,81,83,85,87,89,91,-1,-1,-1,-1,-1,-1,-1,-1,-1,-1,-1,-1,-1,-1,-1,-1,-1,-1,-1,-1,-1,-1,-1,-1,-1,-1,-1,-1,-1,-1,-1,-1,-1,-1,-1,-1,-1,-1],"loss_changes":[2.2242723E2,4.83547E1,8.3737335E0,9.198853E0,9.894926E0,6.2842293E0,4.4770813E-1,1.3165333E1,4.8727417E-1,8.554391E0,8.815657E0,4.4309845E0,6.157522E0,4.7961426E-1,3.7839284E0,1.00337105E1,6.2722015E0,2.948532E-1,7.050969E-1,4.0942116E0,2.420507E0,6.9247093E0,3.1419578E0,2.929802E0,1.3351746E0,6.138217E0,5.168324E0,2.7201843E-1,9.551822E-1,2.721744E0,4.0862274E-1,6.258836E-1,3.5245504E0,3.094429E0,0E0,0E0,0E0,0E0,0E0,0E0,6.0202026E-1,0E0,1.9329247E0,8.144251E0,4.0164585E0,6.7050934E-1,0E0,0E0,3.5466623E0,1.1547034E0,3.299675E-1,2.975027E0,2.6309605E0,1.4029157E0,2.7671762E0,0E0,0E0,0E0,0E0,0E0,0E0,0E0,0E0,0E0,0E0,0E0,0E0,0E0,0E0,0E0,0E0,0E0,0E0,0E0,0E0,0E0,0E0,0E0,0E0,0E0,0E0,0E0,0E0,0E0,0E0,0E0,0E0,0E0,0E0,0E0,0E0,0E0,0E0],"parents":[2147483647,0,0,1,1,2,2,3,3,4,4,5,5,6,6,7,7,8,8,9,9,10,10,11,11,12,12,13,13,14,14,15,15,16,16,17,17,18,18,19,19,20,20,21,21,22,22,23,23,24,24,25,25,26,26,27,27,28,28,29,29,30,30,31,31,32,32,33,33,40,40,42,42,43,43,44,44,45,45,48,48,49,49,50,50,51,51,52,52,53,53,54,54],"right_children":[2,4,6,8,10,12,14,16,18,20,22,24,26,28,30,32,34,36,38,40,42,44,46,48,50,52,54,56,58,60,62,64,66,68,-1,-1,-1,-1,-1,-1,70,-1,72,74,76,78,-1,-1,80,82,84,86,88,90,92,-1,-1,-1,-1,-1,-1,-1,-1,-1,-1,-1,-1,-1,-1,-1,-1,-1,-1,-1,-1,-1,-1,-1,-1,-1,-1,-1,-1,-1,-1,-1,-1,-1,-1,-1,-1,-1,-1],"split_conditions":[6.98E-1,6.039E-1,7.843E-1,8.72E-1,2.83E-1,5.482E-1,4.649E-1,4.083E-1,9.527E3,6.027E-1,7.918E-1,7.68E3,8.421E-1,9.307E-1,8.063E-1,4.767E-1,6.005E-1,1.281E-1,9.03E-2,6.915E-1,5.547E-1,3.368E-1,6.085E-1,3.777E-1,1.537E-1,6.183E-1,2.104E-1,1.189E-1,9.707E3,5.063E-1,8.78E3,3.867E-1,2.316E-1,2.596E-1,7.101441E-2,-3.365461E-2,-1.07193865E-1,-6.9118604E-2,1.4844569E-2,6.42825E-2,2.567E-1,9.171725E-2,7E0,6.129E-1,8.583E-1,4E0,4.5180168E-2,-6.6044174E-2,4.834E-1,7.151E-1,4.774E0,5.74E-1,8.832E3,2.025E-1,4.992E0,3.2065198E-2,1.1635704E-1,-2.0465659E-2,7.824514E-2,6.468173E-2,-9.004425E-2,1.8919086E-2,1.0927826E-1,-9.587776E-2,-5.8920905E-3,9.361368E-2,5.1418096E-3,-1.0737622E-1,-5.594759E-2,-9.576369E-2,-2.5169957E-2,5.546096E-2,-7.77234E-2,-3.521611E-2,6.569816E-2,6.410322E-2,2.3643628E-3,-2.1669893E-2,-9.686976E-2,1.0744521E-2,1.1447529E-1,-3.5059046E-2,6.96678E-2,1.22071706E-1,6.842025E-2,-1.5447822E-2,9.932032E-2,-7.3974565E-2,6.520754E-2,-2.1665268E-2,-1.3923839E-1,3.733277E-2,-6.4998165E-2],"split_indices":[2,2,2,0,1,4,9,4,3,5,4,3,0,4,2,2,1,4,1,0,4,5,1,1,1,5,5,5,3,4,3,4,9,1,0,0,0,0,0,0,1,0,6,1,0,6,0,0,5,2,8,4,3,9,8,0,0,0,0,0,0,0,0,0,0,0,0,0,0,0,0,0,0,0,0,0,0,0,0,0,0,0,0,0,0,0,0,0,0,0,0,0,0],"split_type":[0,0,0,0,0,0,0,0,0,0,0,0,0,0,0,0,0,0,0,0,0,0,0,0,0,0,0,0,0,0,0,0,0,0,0,0,0,0,0,0,0,0,0,0,0,0,0,0,0,0,0,0,0,0,0,0,0,0,0,0,0,0,0,0,0,0,0,0,0,0,0,0,0,0,0,0,0,0,0,0,0,0,0,0,0,0,0,0,0,0,0,0,0],"sum_hessian":[5.077176E2,3.1861304E2,1.8910454E2,1.8677826E2,1.3183478E2,1.0328194E2,8.58226E1,8.7452446E1,9.932582E1,2.9853289E1,1.0198149E2,4.979384E1,5.3488102E1,7.352032E1,1.230228E1,2.5420406E1,6.2032036E1,9.6497765E1,2.828063E0,2.3879492E1,5.9737983E0,8.975663E1,1.2224857E1,1.4342804E1,3.5451035E1,2.9238533E1,2.4249567E1,7.092938E1,2.5909388E0,2.6476965E0,9.654584E0,7.811209E0,1.7609196E1,6.019729E1,1.8347495E0,1.685378E0,9.4812386E1,1.7169018E0,1.1111614E0,1.1534101E0,2.2726082E1,3.46422E0,2.509578E0,4.006216E1,4.969447E1,1.0669462E1,1.5553952E0,1.447035E0,1.2895769E1,2.3853576E0,3.3065674E1,2.4882294E1,4.35624E0,4.0330806E0,2.0216488E1,1.3001244E0,6.962926E1,1.0462182E0,1.5447205E0,1.1473676E0,1.500329E0,1.0255886E0,8.628995E0,6.801928E0,1.0092812E0,6.967569E0,1.0641628E1,3.7527206E1,2.267008E1,2.0536163E1,2.1899176E0,1.0100933E0,1.4994847E0,3.030465E1,9.757512E0,3.4618534E1,1.5075935E1,2.1384263E0,8.531035E0,7.9908104E0,4.9049582E0,1.1236068E0,1.2617508E0,2.7095398E1,5.9702764E0,2.2221618E0,2.2660131E1,3.2563543E0,1.0998853E0,2.3449428E0,1.6881378E0,1.8078321E1,2.1381667E0],"tree_param":{"num_deleted":"0","num_feature":"11","num_nodes":"93","size_leaf_vector":"1"}},{"base_weights":[-2.3588038E-3,-7.045422E-1,5.62371E-1,-1.0349752E0,-4.56164E-1,1.07612476E-1,8.641607E-1,-1.0486617E0,-4.3010685E-1,-5.506063E-1,4.2186823E-1,4.9440616E-1,-9.073075E-2,6.799172E-1,1.0875489E0,-4.1427276E-1,-1.05864935E-1,-3.3747999E-3,-6.448045E-2,-2.706811E-2,-7.457026E-1,7.9032886E-1,-2.5557354E-1,1.206484E-1,7.186677E-1,2.199078E-1,-3.5969135E-1,5.5115573E-2,8.1962085E-1,7.327548E-1,1.1526954E-1,-6.2368056E-3,-5.5853534E-2,-2.5681782E-1,1.09845996E-1,-4.5841042E-2,-8.280537E-1,1.1204302E0,1.9197358E-1,-8.886769E-2,6.39907E-2,-2.2442746E-1,9.661378E-2,7.900461E-1,-3.081942E-2,-6.170961E-1,4.698687E-1,-6.849413E-1,-2.0481465E-2,8.006328E-1,-1.5626241E-1,9.804595E-1,2.6423985E-1,-2.4500025E-2,9.041385E-1,-4.8129775E-2,4.0554766E-2,-6.598641E-2,3.8789373E-2,-6.333624E-2,-1.052696E-1,1.444359E-1,4.6346363E-2,-3.714152E-2,7.601861E-2,2.6159896E-2,-5.1165856E-2,1.7797895E-2,9.671644E-2,-8.619568E-2,1.2001979E-2,9.382571E-2,6.180649E-3,-2.0960119E-2,-9.4662376E-2,2.7049784E-2,-7.614105E-2,1.0763639E-1,2.4129365E-2,-7.453704E-2,2.2041637E-2,-1.3134982E-3,1.0179557E-1,7.597045E-2,-5.0926175E-2,2.1529528E-4,1.00211106E-1],"categories":[],"categories_nodes":[],"categories_segments":[],"categories_sizes":[],"default_left":[0,0,0,0,0,0,0,0,0,0,0,0,0,0,0,0,0,0,0,0,0,0,0,0,0,0,0,0,0,0,0,0,0,0,0,0,0,0,0,0,0,0,0,0,0,0,0,0,0,0,0,0,0,0,0,0,0,0,0,0,0,0,0,0,0,0,0,0,0,0,0,0,0,0,0,0,0,0,0,0,0,0,0,0,0,0,0],"id":15,"left_children":[1,3,5,7,9,11,13,15,17,19,21,23,25,27,29,31,-1,-1,-1,33,35,37,39,41,43,45,47,49,51,53,-1,-1,-1,55,-1,57,59,61,63,-1,-1,65,-1,67,-1,69,71,73,75,77,79,81,83,-1,85,-1,-1,-1,-1,-1,-1,-1,-1,-1,-1,-1,-1,-1,-1,-1,-1,-1,-1,-1,-1,-1,-1,-1,-1,-1,-1,-1,-1,-1,-1,-1,-1],"loss_changes":[1.9262068E2,1.7298363E1,3.6856148E1,3.1163025E-1,1.0630606E1,8.37166E0,5.915329E0,1.2781525E-1,2.9597265E-1,1.1588337E1,3.3830628E0,3.0100899E0,6.144116E0,7.9220467E0,8.0597687E-1,1.1890918E-1,0E0,0E0,0E0,8.529125E0,4.7318764E0,1.4635868E0,3.5423834E0,4.609762E0,1.921174E0,7.46751E0,4.320243E0,2.9225183E0,6.397949E0,2.5379238E0,0E0,0E0,0E0,4.2538223E0,0E0,2.858355E0,2.5692253E0,4.521966E-1,1.6359713E0,0E0,0E0,1.7398553E0,0E0,2.1783981E0,0E0,1.6054022E0,5.099708E0,2.2924004E0,4.5740886E0,3.7024236E-1,3.4189665E0,2.1526031E0,7.325344E0,0E0,1.0560722E0,0E0,0E0,0E0,0E0,0E0,0E0,0E0,0E0,0E0,0E0,0E0,0E0,0E0,0E0,0E0,0E0,0E0,0E0,0E0,0E0,0E0,0E0,0E0,0E0,0E0,0E0,0E0,0E0,0E0,0E0,0E0,0E0],"parents":[2147483647,0,0,1,1,2,2,3,3,4,4,5,5,6,6,7,7,8,8,9,9,10,10,11,11,12,12,13,13,14,14,15,15,19,19,20,20,21,21,22,22,23,23,24,24,25,25,26,26,27,27,28,28,29,29,33,33,35,35,36,36,37,37,38,38,41,41,43,43,45,45,46,46,47,47,48,48,49,49,50,50,51,51,52,52,54,54],"right_children":[2,4,6,8,10,12,14,16,18,20,22,24,26,28,30,32,-1,-1,-1,34,36,38,40,42,44,46,48,50,52,54,-1,-1,-1,56,-1,58,60,62,64,-1,-1,66,-1,68,-1,70,72,74,76,78,80,82,84,-1,86,-1,-1,-1,-1,-1,-1,-1,-1,-1,-1,-1,-1,-1,-1,-1,-1,-1,-1,-1,-1,-1,-1,-1,-1,-1,-1,-1,-1,-1,-1,-1,-1],"split_conditions":[6.405E-1,4.79E-1,7.131E-1,5.128E-1,5.644E-1,3.926E-1,5.67E-1,1.281E-1,2.584E-1,3.696E-1,8.72E-1,3.348E-1,8.256E-1,7.809E3,7.469E-1,1.901E-1,-1.05864935E-1,-3.3747999E-3,-6.448045E-2,5.857E-1,7.408E-1,6.936E-1,7.371E3,5.921E-1,6.592E0,1.662E-1,4.778E-1,6.606E3,8.972E-1,2.118E-1,1.1526954E-1,-6.2368056E-3,-5.5853534E-2,4.463E-1,1.09845996E-1,3.998E-1,6.505E-1,8E0,2.725E-1,-8.886769E-2,6.39907E-2,4.643E-1,9.661378E-2,2.567E-1,-3.081942E-2,4.778E-1,3.046E-1,2.732E0,1.3E1,5.563E-1,4.834E-1,2.053E0,6.6E-1,-2.4500025E-2,8.95E-2,-4.8129775E-2,4.0554766E-2,-6.598641E-2,3.8789373E-2,-6.333624E-2,-1.052696E-1,1.444359E-1,4.6346363E-2,-3.714152E-2,7.601861E-2,2.6159896E-2,-5.1165856E-2,1.7797895E-2,9.671644E-2,-8.619568E-2,1.2001979E-2,9.382571E-2,6.180649E-3,-2.0960119E-2,-9.4662376E-2,2.7049784E-2,-7.614105E-2,1.0763639E-1,2.4129365E-2,-7.453704E-2,2.2041637E-2,-1.3134982E-3,1.0179557E-1,7.597045E-2,-5.0926175E-2,2.1529528E-4,1.00211106E-1],"split_indices":[2,2,2,5,1,4,1,4,9,4,0,5,0,3,2,5,0,0,0,5,0,4,3,1,8,9,1,3,0,5,0,0,0,1,0,5,4,6,9,0,0,10,0,1,0,1,9,8,7,5,5,8,4,0,9,0,0,0,0,0,0,0,0,0,0,0,0,0,0,0,0,0,0,0,0,0,0,0,0,0,0,0,0,0,0,0,0],"split_type":[0,0,0,0,0,0,0,0,0,0,0,0,0,0,0,0,0,0,0,0,0,0,0,0,0,0,0,0,0,0,0,0,0,0,0,0,0,0,0,0,0,0,0,0,0,0,0,0,0,0,0,0,0,0,0,0,0,0,0,0,0,0,0,0,0,0,0,0,0,0,0,0,0,0,0,0,0,0,0,0,0,0,0,0,0,0,0],"sum_hessian":[4.8374945E2,2.155222E2,2.6822723E2,9.112545E1,1.2439675E2,1.0753791E2,1.6068933E2,8.8391685E1,2.733768E0,1.12652596E2,1.1744153E1,3.5946037E1,7.159187E1,9.027611E1,7.041322E1,2.0284421E0,8.636324E1,1.367106E0,1.366662E0,3.0892298E1,8.17603E1,7.4988766E0,4.2452765E0,1.4056776E1,2.1889263E1,3.330655E1,3.8285328E1,1.6751644E1,7.352447E1,1.2823431E1,5.7589794E1,1.006231E0,1.0222112E0,2.6296349E1,4.595948E0,8.771581E0,7.298872E1,4.2704387E0,3.2284381E0,2.491434E0,1.7538422E0,1.0504184E1,3.5525918E0,2.0682236E1,1.2070259E0,7.3214874E0,2.5985062E1,1.902452E1,1.9260805E1,3.0846364E0,1.3667007E1,5.6419865E1,1.7104603E1,1.8484367E0,1.0974995E1,1.984434E1,6.452009E0,3.4153028E0,5.356278E0,4.1147083E1,3.1841639E1,2.0574503E0,2.2129881E0,1.7950104E0,1.4334276E0,3.93499E0,6.5691943E0,5.0917063E0,1.5590529E1,5.3687067E0,1.9527807E0,1.1493319E1,1.4491742E1,7.3941655E0,1.1630356E1,1.4285495E1,4.975311E0,1.446984E0,1.6376524E0,4.948691E0,8.718317E0,2.0753655E0,5.4344498E1,1.0437027E1,6.6675763E0,1.1754233E0,9.799571E0],"tree_param":{"num_deleted":"0","num_feature":"11","num_nodes":"87","size_leaf_vector":"1"}},{"base_weights":[-1.9950806E-3,-4.64247E-1,7.792725E-1,-8.872389E-1,-1.2739898E-1,5.7847536E-1,1.0259645E0,-9.238943E-1,1.84197E-1,-5.718986E-1,3.6078762E-2,8.3254105E-1,3.298841E-1,1.1381816E-1,8.227468E-1,-1.0276215E0,-6.8735695E-1,8.4655486E-2,-4.7285435E-1,-7.7565944E-1,3.4813565E-1,2.7683794E-1,-2.8977928E-1,4.0955332E-1,1.0747008E0,6.2424797E-1,-2.4464218E-2,9.3122727E-1,2.8517136E-2,-1.038152E0,-3.4314003E-2,-8.440236E-1,-9.143225E-2,-6.2116083E-2,-7.932508E-3,4.3186563E-1,-8.7040627E-1,1.0006279E-1,-2.4372116E-1,1.722702E-1,1.0826669E0,1.0940514E-1,-6.4219296E-1,6.560384E-2,7.1250355E-1,1.9633682E-1,1.1394439E-1,8.122568E-1,-3.3493128E-1,-8.542366E-1,1.8034644E-1,2.2377376E-1,1.0472147E0,-9.7481266E-2,8.20844E-2,-4.2836554E-2,-1.04865335E-1,5.3982195E-2,-9.237267E-2,-3.78381E-2,6.341132E-2,-3.9200928E-2,1.00963175E-1,-9.3918994E-2,-1.3583328E-2,-6.1285447E-2,3.4630787E-2,-2.9403135E-2,3.7817232E-2,2.3778154E-2,1.1740366E-1,6.384622E-2,-3.6642563E-2,-7.666405E-2,6.0733564E-2,-5.5887975E-2,6.720794E-2,9.176793E-2,-2.862075E-2,6.54646E-2,-3.765294E-2,-2.3918325E-2,9.039533E-2,4.1167967E-2,-8.440642E-2,-2.1097785E-2,-1.3295996E-1,-2.7831716E-2,4.3673847E-2,7.045673E-2,-8.378361E-2,1.5292625E-2,1.10678926E-1],"categories":[],"categories_nodes":[],"categories_segments":[],"categories_sizes":[],"default_left":[0,0,0,0,0,0,0,0,0,0,0,0,0,0,0,0,0,0,0,0,0,0,0,0,0,0,0,0,0,0,0,0,0,0,0,0,0,0,0,0,0,0,0,0,0,0,0,0,0,0,0,0,0,0,0,0,0,0,0,0,0,0,0,0,0,0,0,0,0,0,0,0,0,0,0,0,0,0,0,0,0,0,0,0,0,0,0,0,0,0,0,0,0],"id":16,"left_children":[1,3,5,7,9,11,13,15,17,19,21,23,25,-1,27,29,31,-1,33,35,37,39,41,43,45,47,49,51,53,55,-1,57,59,-1,-1,61,63,-1,65,67,69,71,73,75,77,79,-1,81,83,85,87,89,91,-1,-1,-1,-1,-1,-1,-1,-1,-1,-1,-1,-1,-1,-1,-1,-1,-1,-1,-1,-1,-1,-1,-1,-1,-1,-1,-1,-1,-1,-1,-1,-1,-1,-1,-1,-1,-1,-1,-1,-1],"loss_changes":[1.6709653E2,4.1305832E1,7.9263153E0,5.224724E0,1.1864527E1,5.8587112E0,7.9408264E-1,2.3509827E0,2.6159728E0,8.497163E0,9.502904E0,4.41201E0,5.307864E0,0E0,2.6102982E0,2.5358582E-1,3.7512321E0,0E0,1.3733715E-1,4.521904E0,3.5833278E0,5.6768456E0,7.3183007E0,1.9186449E0,1.4543686E0,5.277008E0,4.2304854E0,1.9725685E0,4.543989E0,8.118439E-2,0E0,4.066578E0,2.2506225E0,0E0,0E0,1.9689407E0,1.5869675E0,0E0,1.3749591E0,6.1388865E0,3.2321072E-1,6.530627E0,4.743392E0,4.1381764E0,2.2968383E0,1.0955522E0,0E0,2.4816628E0,2.3456142E0,1.2247863E0,2.481004E0,3.1730838E0,1.047327E0,0E0,0E0,0E0,0E0,0E0,0E0,0E0,0E0,0E0,0E0,0E0,0E0,0E0,0E0,0E0,0E0,0E0,0E0,0E0,0E0,0E0,0E0,0E0,0E0,0E0,0E0,0E0,0E0,0E0,0E0,0E0,0E0,0E0,0E0,0E0,0E0,0E0,0E0,0E0,0E0],"parents":[2147483647,0,0,1,1,2,2,3,3,4,4,5,5,6,6,7,7,8,8,9,9,10,10,11,11,12,12,14,14,15,15,16,16,18,18,19,19,20,20,21,21,22,22,23,23,24,24,25,25,26,26,27,27,28,28,29,29,31,31,32,32,35,35,36,36,38,38,39,39,40,40,41,41,42,42,43,43,44,44,45,45,47,47,48,48,49,49,50,50,51,51,52,52],"right_children":[2,4,6,8,10,12,14,16,18,20,22,24,26,-1,28,30,32,-1,34,36,38,40,42,44,46,48,50,52,54,56,-1,58,60,-1,-1,62,64,-1,66,68,70,72,74,76,78,80,-1,82,84,86,88,90,92,-1,-1,-1,-1,-1,-1,-1,-1,-1,-1,-1,-1,-1,-1,-1,-1,-1,-1,-1,-1,-1,-1,-1,-1,-1,-1,-1,-1,-1,-1,-1,-1,-1,-1,-1,-1,-1,-1,-1,-1],"split_conditions":[6.98E-1,5.584E-1,7.843E-1,6.093E-1,2.83E-1,5.547E-1,6.248E-1,4.803E-1,3.926E-1,6.027E-1,8.526E-1,7.989E3,8.421E-1,1.1381816E-1,4.785E-1,5.128E-1,4.463E-1,8.4655486E-2,7E0,1.916E-1,3.908E-1,6.005E-1,4.882E-1,5.445E-1,1.537E-1,6.183E-1,2.104E-1,2.744E-1,8.296E-1,1.281E-1,-3.4314003E-2,1.534E-1,3.95E-1,-6.2116083E-2,-7.932508E-3,1.537E-1,1.5E1,1.0006279E-1,6.405E-1,3.348E-1,6.039E-1,4.643E-1,6.974E-1,4.834E-1,4.595E0,8E0,1.1394439E-1,5.74E-1,4.202E-1,2.025E-1,8.391E3,2.578E-1,7.397E3,-9.7481266E-2,8.20844E-2,-4.2836554E-2,-1.04865335E-1,5.3982195E-2,-9.237267E-2,-3.78381E-2,6.341132E-2,-3.9200928E-2,1.00963175E-1,-9.3918994E-2,-1.3583328E-2,-6.1285447E-2,3.4630787E-2,-2.9403135E-2,3.7817232E-2,2.3778154E-2,1.1740366E-1,6.384622E-2,-3.6642563E-2,-7.666405E-2,6.0733564E-2,-5.5887975E-2,6.720794E-2,9.176793E-2,-2.862075E-2,6.54646E-2,-3.765294E-2,-2.3918325E-2,9.039533E-2,4.1167967E-2,-8.440642E-2,-2.1097785E-2,-1.3295996E-1,-2.7831716E-2,4.3673847E-2,7.045673E-2,-8.378361E-2,1.5292625E-2,1.10678926E-1],"split_indices":[2,2,2,5,1,4,4,2,4,5,0,3,0,0,9,5,1,0,6,4,4,1,4,1,1,5,5,5,2,4,0,4,9,0,0,1,7,0,2,5,2,10,1,5,8,6,0,4,1,9,3,5,3,0,0,0,0,0,0,0,0,0,0,0,0,0,0,0,0,0,0,0,0,0,0,0,0,0,0,0,0,0,0,0,0,0,0,0,0,0,0,0,0],"split_type":[0,0,0,0,0,0,0,0,0,0,0,0,0,0,0,0,0,0,0,0,0,0,0,0,0,0,0,0,0,0,0,0,0,0,0,0,0,0,0,0,0,0,0,0,0,0,0,0,0,0,0,0,0,0,0,0,0,0,0,0,0,0,0,0,0,0,0,0,0,0,0,0,0,0,0,0,0,0,0,0,0,0,0,0,0,0,0,0,0,0,0,0,0],"sum_hessian":[4.6068698E2,2.8969135E2,1.7099564E2,1.277E2,1.6199133E2,9.611055E1,7.488509E1,1.23608864E2,4.09113E0,4.2885742E1,1.191056E2,4.6370182E1,4.9740368E1,4.5280415E1,2.9604677E1,8.360267E1,4.00062E1,1.89371E0,2.1974196E0,3.5238384E1,7.6473575E0,6.8583405E1,5.0522194E1,1.7861763E1,2.8508419E1,2.67538E1,2.2986568E1,2.5895262E1,3.7094154E0,8.182709E1,1.7755778E0,3.1348463E1,8.657735E0,1.1758496E0,1.02157E0,2.3048995E0,3.2933483E1,3.308854E0,4.3385034E0,6.178031E1,6.803092E0,2.401246E1,2.6509731E1,8.934584E0,8.927179E0,2.233896E0,2.6274523E1,2.2497282E1,4.256519E0,3.9228058E0,1.9063763E1,4.06014E0,2.1835121E1,1.5351397E0,2.1742759E0,2.092837E0,7.973425E1,1.3928137E0,2.9955648E1,6.5469456E0,2.1107895E0,1.0826236E0,1.2222759E0,2.9859007E1,3.0744777E0,2.6450346E0,1.6934689E0,1.8792768E1,4.2987545E1,1.0154796E0,5.7876124E0,1.1208451E1,1.280401E1,2.4460073E1,2.0496583E0,4.440604E0,4.493979E0,7.473048E0,1.454131E0,1.1617265E0,1.0721695E0,1.6755964E0,2.0821684E1,1.803383E0,2.4531357E0,2.2805722E0,1.6422336E0,6.8048854E0,1.2258878E1,3.0260098E0,1.0341305E0,1.5865163E0,2.0248606E1],"tree_param":{"num_deleted":"0","num_feature":"11","num_nodes":"93","size_leaf_vector":"1"}},{"base_weights":[-1.526323E-3,-6.543133E-1,5.012355E-1,-1.0072473E0,-4.0562794E-1,9.40846E-2,7.9396784E-1,-1.0275619E0,-3.408205E-1,1.0238538E-1,-5.5624485E-1,4.459884E-1,-8.607798E-2,6.034073E-1,1.0350852E0,-4.0925807E-1,-1.038957E-1,-5.6268435E-2,1.3499605E-2,3.839852E-1,-5.775415E-1,-6.7393076E-1,3.4011948E-1,1.0523995E-1,6.49682E-1,-1.649471E-1,7.616227E-1,2.0525967E-1,8.170064E-1,6.670872E-1,1.1077093E-1,-6.3291863E-3,-5.5324104E-2,-3.769864E-1,6.629502E-1,-8.2128876E-1,4.0182337E-2,-9.4992065E-1,-4.4702077E-1,1.0273695E-1,4.9433444E-2,-1.7742E-1,9.988743E-2,1.0173839E0,3.829111E-1,-2.5987998E-1,7.0012146E-1,1.0104882E-1,-4.272806E-3,-3.4110013E-1,3.8060305E-1,1.0513784E0,4.1689998E-1,-2.4812713E-2,8.396919E-1,-7.278944E-2,6.0350176E-2,-5.5867797E-3,9.450076E-2,-9.687431E-2,-9.932759E-3,-6.7136707E-3,-9.747562E-2,-1.4538477E-2,-9.016752E-2,-7.263367E-2,6.966078E-2,3.228517E-2,-5.0982285E-2,2.195931E-2,1.1297007E-1,5.0377073E-3,8.910863E-2,-4.5386594E-2,1.794141E-3,1.0354636E-1,-2.8414104E-2,-1.03578545E-1,4.6228047E-2,5.5759348E-2,-2.3790717E-2,-6.1710565E-3,1.09816484E-1,8.939683E-2,-2.6516782E-3,-1.8480317E-3,9.429475E-2],"categories":[],"categories_nodes":[],"categories_segments":[],"categories_sizes":[],"default_left":[0,0,0,0,0,0,0,0,0,0,0,0,0,0,0,0,0,0,0,0,0,0,0,0,0,0,0,0,0,0,0,0,0,0,0,0,0,0,0,0,0,0,0,0,0,0,0,0,0,0,0,0,0,0,0,0,0,0,0,0,0,0,0,0,0,0,0,0,0,0,0,0,0,0,0,0,0,0,0,0,0,0,0,0,0,0,0],"id":17,"left_children":[1,3,5,7,9,11,13,15,17,19,21,23,25,27,29,31,-1,-1,-1,33,35,37,39,41,43,45,47,49,51,53,-1,-1,-1,55,57,59,-1,61,63,-1,65,67,-1,69,71,73,75,-1,-1,77,79,81,83,-1,85,-1,-1,-1,-1,-1,-1,-1,-1,-1,-1,-1,-1,-1,-1,-1,-1,-1,-1,-1,-1,-1,-1,-1,-1,-1,-1,-1,-1,-1,-1,-1,-1],"loss_changes":[1.447369E2,1.643216E1,2.9618546E1,7.144089E-1,8.797724E0,6.716717E0,6.0284424E0,1.0897827E-1,4.7948968E-1,5.385284E0,9.54048E0,2.4185052E0,4.8395343E0,6.914356E0,9.3198395E-1,1.1551535E-1,0E0,0E0,0E0,4.4257083E0,2.3107572E0,4.4825745E0,2.1284444E0,3.8646898E0,1.7911549E0,5.5468526E0,1.2801635E0,3.0433226E0,4.612625E0,2.233347E0,0E0,0E0,0E0,2.4741302E0,3.0446458E0,6.4603376E-1,0E0,6.902275E-1,6.0253983E0,0E0,4.882188E0,2.150053E0,0E0,5.3542423E-1,2.4032793E0,3.2200055E0,2.5158217E0,0E0,0E0,4.8968444E0,2.70476E0,1.802433E0,4.5831814E0,0E0,9.9329805E-1,0E0,0E0,0E0,0E0,0E0,0E0,0E0,0E0,0E0,0E0,0E0,0E0,0E0,0E0,0E0,0E0,0E0,0E0,0E0,0E0,0E0,0E0,0E0,0E0,0E0,0E0,0E0,0E0,0E0,0E0,0E0,0E0],"parents":[2147483647,0,0,1,1,2,2,3,3,4,4,5,5,6,6,7,7,8,8,9,9,10,10,11,11,12,12,13,13,14,14,15,15,19,19,20,20,21,21,22,22,23,23,24,24,25,25,26,26,27,27,28,28,29,29,33,33,34,34,35,35,37,37,38,38,40,40,41,41,43,43,44,44,45,45,46,46,49,49,50,50,51,51,52,52,54,54],"right_children":[2,4,6,8,10,12,14,16,18,20,22,24,26,28,30,32,-1,-1,-1,34,36,38,40,42,44,46,48,50,52,54,-1,-1,-1,56,58,60,-1,62,64,-1,66,68,-1,70,72,74,76,-1,-1,78,80,82,84,-1,86,-1,-1,-1,-1,-1,-1,-1,-1,-1,-1,-1,-1,-1,-1,-1,-1,-1,-1,-1,-1,-1,-1,-1,-1,-1,-1,-1,-1,-1,-1,-1,-1],"split_conditions":[6.405E-1,4.803E-1,7.131E-1,5.128E-1,3.351E-1,3.926E-1,5.67E-1,1.281E-1,5.904E3,8.749E-1,5.579E-1,3.348E-1,6.676E-1,8.884E3,7.469E-1,3.889E-1,-1.038957E-1,-5.6268435E-2,1.3499605E-2,7.555E-1,4.192E-1,3.26E-1,8E0,6.206E-1,1.868E-1,6.319E-1,1E1,3.333E-1,6.317E-1,2.118E-1,1.1077093E-1,-6.3291863E-3,-5.5324104E-2,3.157E-1,1.594E-1,3.745E-1,4.0182337E-2,7.251E-1,6.505E-1,1.0273695E-1,6.129E-1,4.643E-1,9.988743E-2,2.038E-1,7E-1,4.768E-1,1.3E1,1.0104882E-1,-4.272806E-3,4.746E-1,4.192E-1,1.477E-1,8.134E-1,-2.4812713E-2,8.95E-2,-7.278944E-2,6.0350176E-2,-5.5867797E-3,9.450076E-2,-9.687431E-2,-9.932759E-3,-6.7136707E-3,-9.747562E-2,-1.4538477E-2,-9.016752E-2,-7.263367E-2,6.966078E-2,3.228517E-2,-5.0982285E-2,2.195931E-2,1.1297007E-1,5.0377073E-3,8.910863E-2,-4.5386594E-2,1.794141E-3,1.0354636E-1,-2.8414104E-2,-1.03578545E-1,4.6228047E-2,5.5759348E-2,-2.3790717E-2,-6.1710565E-3,1.09816484E-1,8.939683E-2,-2.6516782E-3,-1.8480317E-3,9.429475E-2],"split_indices":[2,2,2,5,4,4,1,4,3,0,1,5,1,3,2,10,0,0,0,0,9,5,7,1,9,5,6,10,4,5,0,0,0,4,1,5,0,0,4,0,1,10,0,1,10,1,7,0,0,5,9,5,0,0,9,0,0,0,0,0,0,0,0,0,0,0,0,0,0,0,0,0,0,0,0,0,0,0,0,0,0,0,0,0,0,0,0],"split_type":[0,0,0,0,0,0,0,0,0,0,0,0,0,0,0,0,0,0,0,0,0,0,0,0,0,0,0,0,0,0,0,0,0,0,0,0,0,0,0,0,0,0,0,0,0,0,0,0,0,0,0,0,0,0,0,0,0,0,0,0,0,0,0,0,0,0,0,0,0,0,0,0,0,0,0,0,0,0,0,0,0,0,0,0,0,0,0],"sum_hessian":[4.390076E2,1.9087442E2,2.481332E2,7.7638985E1,1.1323543E2,1.0433657E2,1.4379662E2,7.4816475E1,2.8225148E0,2.596814E1,8.726729E1,3.4829716E1,6.950686E1,8.227521E1,6.152141E1,2.021908E0,7.279456E1,1.8004395E0,1.0220753E0,1.8670702E1,7.2974386E0,7.735881E1,9.908482E0,1.3598368E1,2.1231348E1,6.432733E1,5.179525E0,2.9412123E1,5.2863083E1,1.1818852E1,4.9702557E1,1.0172385E0,1.0046695E0,4.914195E0,1.3756506E1,5.972413E0,1.3250256E0,3.3466854E1,4.3891956E1,2.1919365E0,7.716545E0,1.0939594E1,2.6587734E0,7.743897E0,1.348745E1,5.859652E1,5.730814E0,3.7599282E0,1.4195968E0,6.916229E0,2.2495893E1,3.2309357E1,2.0553724E1,1.8058765E0,1.0012977E1,3.8087115E0,1.1054835E0,4.1027217E0,9.653785E0,4.675634E0,1.296779E0,1.0171009E0,3.2449753E1,2.7179655E1,1.6712303E1,3.4539561E0,4.2625885E0,4.3785458E0,6.561049E0,1.3203707E0,6.4235263E0,8.817008E0,4.670442E0,3.4131138E1,2.446538E1,4.235681E0,1.4951329E0,3.5538888E0,3.3623402E0,1.7567373E1,4.9285207E0,1.2904115E0,3.1018946E1,9.411684E0,1.114204E1,1.163552E0,8.849424E0],"tree_param":{"num_deleted":"0","num_feature":"11","num_nodes":"87","size_leaf_vector":"1"}},{"base_weights":[-6.3815335E-4,-6.2838846E-1,4.727723E-1,-9.9541515E-1,-3.8192788E-1,4.6859153E-2,7.339219E-1,-1.0174984E0,-3.235188E-1,-1.9016732E-1,-7.792118E-1,-4.4403806E-2,7.1758074E-1,3.6045656E-1,8.679384E-1,-3.956369E-2,-1.0298206E-1,6.0839397E-3,-6.1152954E-2,2.7280855E-1,-4.3583155E-1,-9.282701E-1,-1.2845612E-1,-6.715443E-1,9.4348215E-2,1.4193323E-1,1.0244721E0,1.8499848E-2,1.0034765E0,9.632901E-1,3.5354248E-1,3.9544426E-2,9.2715657E-1,-8.935043E-1,-1.21243656E-1,-9.693686E-2,-5.6462176E-3,-6.68342E-1,7.245696E-1,8.659747E-2,-8.6053693E-1,1.8472917E-1,-7.3808324E-1,8.0986165E-2,-3.4250715E-1,1.187075E0,5.092615E-3,4.6165138E-1,-1.6380827E-1,2.187992E-2,1.0652047E-1,1.1067187E-1,7.61804E-1,8.76112E-1,-1.0723218E-1,-2.6860684E-2,9.88936E-2,1.3193445E-1,-5.547246E-2,-9.82905E-2,8.4271247E-4,1.975468E-2,-5.2716184E-2,-9.636481E-2,2.6990253E-2,1.0593819E-1,9.056441E-3,-9.457635E-2,-2.8179694E-2,3.4497242E-2,-2.9150633E-2,1.2144755E-2,-9.071629E-2,2.4250055E-2,-8.1098825E-2,4.0962417E-2,1.3859789E-1,-5.8827866E-2,7.095625E-2,-3.1921636E-2,8.570817E-2,2.8853834E-2,9.253981E-2,2.2020532E-2,1.00265466E-1,-4.281606E-2,7.495965E-2],"categories":[],"categories_nodes":[],"categories_segments":[],"categories_sizes":[],"default_left":[0,0,0,0,0,0,0,0,0,0,0,0,0,0,0,0,0,0,0,0,0,0,0,0,0,0,0,0,0,0,0,0,0,0,0,0,0,0,0,0,0,0,0,0,0,0,0,0,0,0,0,0,0,0,0,0,0,0,0,0,0,0,0,0,0,0,0,0,0,0,0,0,0,0,0,0,0,0,0,0,0,0,0,0,0,0,0],"id":18,"left_children":[1,3,5,7,9,11,13,15,17,19,21,23,25,27,29,-1,-1,-1,-1,31,33,35,37,39,41,43,45,47,49,51,53,55,57,59,61,-1,-1,63,65,-1,67,69,71,-1,73,75,-1,77,79,-1,-1,-1,81,83,85,-1,-1,-1,-1,-1,-1,-1,-1,-1,-1,-1,-1,-1,-1,-1,-1,-1,-1,-1,-1,-1,-1,-1,-1,-1,-1,-1,-1,-1,-1,-1,-1],"loss_changes":[1.25243744E2,1.6009193E1,2.6688244E1,7.415848E-1,8.233332E0,5.6870804E0,7.137947E0,1.2438202E-1,4.537183E-1,8.708826E0,3.3235855E0,7.2217107E0,1.8196874E0,9.001764E0,4.9980087E0,0E0,0E0,0E0,0E0,4.0535493E0,7.051358E0,9.7421646E-1,4.065058E0,5.111574E0,5.2702513E0,1.9045857E0,1.0626369E0,2.3215623E0,4.558611E-1,1.7936859E0,4.57271E0,6.350641E0,4.7987876E0,1.6290131E0,4.0674314E0,0E0,0E0,1.7235153E0,6.4562714E-1,0E0,4.182577E-1,4.8590145E0,1.1105311E0,0E0,1.1881189E0,3.654232E-1,0E0,2.5947194E0,3.515664E0,0E0,0E0,0E0,2.919012E0,5.116768E-1,